{"learner":{"attributes":{"scikit_learn":"{\"_estimator_type\": \"classifier\"}"},"feature_names":["gender","age","hypertension","heart_disease","ever_married","work_type","Residence_type","avg_glucose_level","bmi","smoking_status"],"feature_types":["int","float","int","int","int","int","int","float","float","int"],"gradient_booster":{"model":{"gbtree_model_param":{"num_parallel_tree":"1","num_trees":"100"},"iteration_indptr":[0,1,2,3,4,5,6,7,8,9,10,11,12,13,14,15,16,17,18,19,20,21,22,23,24,25,26,27,28,29,30,31,32,33,34,35,36,37,38,39,40,41,42,43,44,45,46,47,48,49,50,51,52,53,54,55,56,57,58,59,60,61,62,63,64,65,66,67,68,69,70,71,72,73,74,75,76,77,78,79,80,81,82,83,84,85,86,87,88,89,90,91,92,93,94,95,96,97,98,99,100],"tree_info":[0,0,0,0,0,0,0,0,0,0,0,0,0,0,0,0,0,0,0,0,0,0,0,0,0,0,0,0,0,0,0,0,0,0,0,0,0,0,0,0,0,0,0,0,0,0,0,0,0,0,0,0,0,0,0,0,0,0,0,0,0,0,0,0,0,0,0,0,0,0,0,0,0,0,0,0,0,0,0,0,0,0,0,0,0,0,0,0,0,0,0,0,0,0,0,0,0,0,0,0],"trees":[{"base_weights":[-3.8490435E-1,-8.081764E-1,1.2643508E0,-1.1321821E0,-2.7141562E-1,9.446908E-1,1.8349851E0,-1.1943591E0,-9.615947E-1,-4.598479E-1,4.7264922E-1,1.1430473E0,-7.869482E-1,2.3221872E0,1.1891342E0,-8.5590506E-1,-1.2048432E0,-9.876878E-1,5.296875E-1,-6.983848E-1,-2.2250237E-1,1.7213753E-1,2.3205786E0,3.5484222E-1,1.4441828E0,-1.083051E0,1.4231132E0,1.6358887E0,3.2896044E0,2.3171108E0,2.7206936E-1,-3.577169E-1,4.57361E-1,-9.305111E-1,-3.6438355E-1,-6.264578E-1,-1.0652381E0,1.1793379E0,-3.20262E-1,-5.303212E-1,-1.0449706E0,-4.1714814E-1,5.2177113E-1,6.8844444E-1,-6.3577443E-1,-3.1426528E-1,3.0268335E0,2.0932393E-1,3.36492E0,1.292931E0,2.5864444E0,-3.5870513E-1,-3.213774E-1,9.8006725E-1,-2.7481443E-1,-2.5737584E-1,2.4870543E0,-2.8934336E-1,3.5366318E0,2.5298746E0,-2.841187E-1,9.827265E-1,-8.208296E-1,-3.093313E-1,6.316792E-1,-3.5945684E-1,2.89561E-1,3.2699257E-1,-2.5868493E-1,-1.5296817E-1,-3.351587E-1,-9.140317E-2,-3.6263055E-1,-3.6419472E-1,-8.797536E-2,6.741804E-2,-1.8454927E-1,3.6993027E-1,-1.5383908E-1,6.6903806E-1,8.3593905E-2,-2.2918549E-1,1.0550047E0,-2.420867E-1,9.9635315E-1,1.5645832E-1,-3.5227144E-1,1.3267629E0,-1.9963259E-1,5.8872485E-1,2.3971419E-1,1.0530503E0,-3.264137E-1,4.536685E-1,-3.093313E-1,-3.5028505E-1,4.1673443E-1,8.601739E-1,4.2937055E-2,1.1028262E0,-2.420867E-1,4.986818E-1,9.956605E-1,-3.3310288E-1,4.73303E-1,-3.541746E-1,1.021711E0],"categories":[],"categories_nodes":[],"categories_segments":[],"categories_sizes":[],"default_left":[0,0,0,0,0,0,0,0,0,0,0,0,0,0,0,0,0,0,0,0,0,0,0,0,0,0,0,0,0,0,0,0,0,0,0,0,0,0,0,0,0,0,0,0,0,0,0,0,0,0,0,0,0,0,0,0,0,0,0,0,0,0,0,0,0,0,0,0,0,0,0,0,0,0,0,0,0,0,0,0,0,0,0,0,0,0,0,0,0,0,0,0,0,0,0,0,0,0,0,0,0,0,0,0,0,0,0],"id":0,"left_children":[1,3,5,7,9,11,13,15,17,19,21,23,25,27,29,31,33,35,37,39,41,43,45,47,49,51,53,55,57,59,61,-1,63,65,-1,67,69,-1,-1,71,73,75,77,79,81,-1,83,85,87,89,91,-1,93,-1,-1,95,97,-1,99,101,-1,103,105,-1,-1,-1,-1,-1,-1,-1,-1,-1,-1,-1,-1,-1,-1,-1,-1,-1,-1,-1,-1,-1,-1,-1,-1,-1,-1,-1,-1,-1,-1,-1,-1,-1,-1,-1,-1,-1,-1,-1,-1,-1,-1,-1,-1],"loss_changes":[2.9584917E3,5.861179E2,1.5616345E2,2.115039E1,1.783577E2,1.9217813E2,9.4701416E1,4.4213867E0,2.2575684E1,5.7271194E1,1.4245183E2,1.18178894E2,3.938298E1,1.11142944E2,1.3926018E2,2.247337E1,2.8574219E0,1.4945374E1,6.0679134E1,2.8886017E1,7.408658E1,9.318177E1,8.857066E1,6.0425957E1,5.9111145E1,4.0391846E0,3.4322746E1,1.6929636E2,7.891229E1,4.4420563E1,5.9619728E1,0E0,2.8774853E1,2.9288895E1,0E0,4.1794285E1,1.2628235E1,0E0,0E0,5.2049484E1,2.0482727E1,5.1582405E1,7.875057E1,8.53824E1,4.9103363E1,0E0,3.6460297E1,5.857653E1,3.009314E1,1.04644165E2,1.4389984E2,0E0,1.1983204E1,0E0,0E0,5.1626938E1,6.401358E1,0E0,4.422766E1,3.3556458E1,0E0,5.945956E1,5.021748E1,0E0,0E0,0E0,0E0,0E0,0E0,0E0,0E0,0E0,0E0,0E0,0E0,0E0,0E0,0E0,0E0,0E0,0E0,0E0,0E0,0E0,0E0,0E0,0E0,0E0,0E0,0E0,0E0,0E0,0E0,0E0,0E0,0E0,0E0,0E0,0E0,0E0,0E0,0E0,0E0,0E0,0E0,0E0,0E0],"parents":[2147483647,0,0,1,1,2,2,3,3,4,4,5,5,6,6,7,7,8,8,9,9,10,10,11,11,12,12,13,13,14,14,15,15,16,16,17,17,18,18,19,19,20,20,21,21,22,22,23,23,24,24,25,25,26,26,27,27,28,28,29,29,30,30,32,32,33,33,35,35,36,36,39,39,40,40,41,41,42,42,43,43,44,44,46,46,47,47,48,48,49,49,50,50,52,52,55,55,56,56,58,58,59,59,61,61,62,62],"right_children":[2,4,6,8,10,12,14,16,18,20,22,24,26,28,30,32,34,36,38,40,42,44,46,48,50,52,54,56,58,60,62,-1,64,66,-1,68,70,-1,-1,72,74,76,78,80,82,-1,84,86,88,90,92,-1,94,-1,-1,96,98,-1,100,102,-1,104,106,-1,-1,-1,-1,-1,-1,-1,-1,-1,-1,-1,-1,-1,-1,-1,-1,-1,-1,-1,-1,-1,-1,-1,-1,-1,-1,-1,-1,-1,-1,-1,-1,-1,-1,-1,-1,-1,-1,-1,-1,-1,-1,-1,-1],"split_conditions":[6.8E1,4.8E1,1.2721E2,3.8E1,1.6214E2,3.45E1,1E0,5.837E1,4.58E1,5.7E1,1E0,7.4E1,8E1,2.1972E2,2.0158E2,5.793E1,1.4E0,1E0,1E0,3.2E1,1.0654E2,2.1338E2,3.08E1,3.39E1,1E0,1E0,8.1E1,7.3E1,2.56E1,1E0,3.1E1,-3.577169E-1,1E0,1.32E0,-3.6438355E-1,3.9E1,6.42E1,1.1793379E0,-3.20262E-1,1.0528E2,4.13E1,5.9E1,1.2144E2,1E0,4.89E1,-3.1426528E-1,5.5E1,7.3E1,8.922E1,7.894E1,2.89E1,-3.5870513E-1,7.249E1,9.8006725E-1,-2.7481443E-1,3.56E1,2.1338E2,-2.8934336E-1,8.2E1,1.8984E2,-2.841187E-1,2.56E1,2.4009E2,-3.093313E-1,6.316792E-1,-3.5945684E-1,2.89561E-1,3.2699257E-1,-2.5868493E-1,-1.5296817E-1,-3.351587E-1,-9.140317E-2,-3.6263055E-1,-3.6419472E-1,-8.797536E-2,6.741804E-2,-1.8454927E-1,3.6993027E-1,-1.5383908E-1,6.6903806E-1,8.3593905E-2,-2.2918549E-1,1.0550047E0,-2.420867E-1,9.9635315E-1,1.5645832E-1,-3.5227144E-1,1.3267629E0,-1.9963259E-1,5.8872485E-1,2.3971419E-1,1.0530503E0,-3.264137E-1,4.536685E-1,-3.093313E-1,-3.5028505E-1,4.1673443E-1,8.601739E-1,4.2937055E-2,1.1028262E0,-2.420867E-1,4.986818E-1,9.956605E-1,-3.3310288E-1,4.73303E-1,-3.541746E-1,1.021711E0],"split_indices":[1,1,7,1,7,8,5,7,8,1,3,1,1,7,7,7,1,9,0,8,7,7,8,8,4,3,1,1,8,4,8,0,6,1,0,1,7,0,0,7,8,1,7,9,8,0,1,1,7,7,8,0,7,0,0,8,7,0,1,7,0,8,7,0,0,0,0,0,0,0,0,0,0,0,0,0,0,0,0,0,0,0,0,0,0,0,0,0,0,0,0,0,0,0,0,0,0,0,0,0,0,0,0,0,0,0,0],"split_type":[0,0,0,0,0,0,0,0,0,0,0,0,0,0,0,0,0,0,0,0,0,0,0,0,0,0,0,0,0,0,0,0,0,0,0,0,0,0,0,0,0,0,0,0,0,0,0,0,0,0,0,0,0,0,0,0,0,0,0,0,0,0,0,0,0,0,0,0,0,0,0,0,0,0,0,0,0,0,0,0,0,0,0,0,0,0,0,0,0,0,0,0,0,0,0,0,0,0,0,0,0,0,0,0,0,0,0],"sum_hessian":[4.235555E3,3.370934E3,8.646213E2,2.101371E3,1.2695629E3,5.558812E2,3.0874002E2,1.5356461E3,5.657251E2,1.01332355E3,2.5623932E2,4.9905515E2,5.6826065E1,1.7450523E2,1.342348E2,4.8622826E1,1.4870233E3,5.563287E2,9.396436E0,5.0442453E2,5.0889905E2,2.2133827E2,3.4901047E1,1.3856013E2,3.60495E2,5.0561775E1,6.264291E0,1.03659096E2,7.0846146E1,5.951076E1,7.472404E1,3.8778942E1,9.843885E0,5.4439667E1,1.4325836E3,9.993035E1,4.5639832E2,2.5355463E0,6.8608894E0,3.4140384E2,1.630207E2,4.0374844E2,1.0515059E2,1.351297E2,8.620857E1,5.965991E0,2.8935057E1,1.3319075E2,5.369392E0,3.2022458E2,4.027044E1,4.3551735E1,7.0100393E0,3.281295E0,2.9829955E0,3.23655E1,7.1293594E1,3.7287445E0,6.71174E1,5.6080315E1,3.4304447E0,4.534153E1,2.9382505E1,5.369392E0,4.474493E0,4.8026226E1,6.41344E0,1.1633682E1,8.829667E1,3.997214E1,4.1642618E2,2.5728336E2,8.4120476E1,1.3259415E2,3.0426554E1,9.5157555E1,3.0859088E2,6.2195457E1,4.2955135E1,2.7443558E1,1.07686134E2,8.441877E1,1.7897973E0,1.9389471E0,2.6996109E1,1.09177635E2,2.4013113E1,4.1761937E0,1.1931982E0,1.3468225E2,1.8554233E2,3.221635E1,8.054088E0,1.6406475E0,5.369392E0,2.1030119E1,1.1335382E1,6.115141E1,1.0142185E1,6.517845E1,1.9389471E0,2.8189308E1,2.7891008E1,9.843885E0,3.5497646E1,2.7741858E1,1.6406475E0],"tree_param":{"num_deleted":"0","num_feature":"10","num_nodes":"107","size_leaf_vector":"1"}},{"base_weights":[-3.4020948E-1,-9.087748E-1,3.9451793E-1,-1.0730175E0,-5.4474485E-1,-6.234522E-3,6.431279E-1,-1.1206567E0,-8.929795E-1,-6.5479565E-1,2.1685225E-1,-3.1932002E-1,4.618121E-1,7.256654E-1,1.0599493E-1,-7.6335233E-1,-1.1325921E0,-5.446022E-1,-1.0410786E0,-1.0491806E0,-5.486261E-1,-1.0050818E-2,2.3680594E0,6.6451062E-3,-6.0863703E-1,1.927675E-1,1.4034289E0,7.016303E-1,7.147666E-1,-7.563407E-1,9.349868E-1,-3.3574995E-1,2.6428112E-1,-8.2917917E-1,-3.4323457E-1,1.1955804E-1,-9.275645E-1,-1.1038129E0,6.239733E-1,-2.8728524E-1,-3.5153738E-1,-3.124242E-1,-8.413244E-1,7.912562E-1,-7.4582195E-1,-2.354454E-1,1.0446714E0,-6.380794E-1,5.1005584E-1,-2.5336325E-1,-3.5293496E-1,1.0992186E0,-1.6817386E-1,1.7788206E0,-5.5979395E-1,3.3005765E-1,8.238393E-1,2.7656662E-1,-3.593485E-1,1.3559802E0,-2.6576504E-1,-2.8391084E-1,3.3663338E-1,-3.3773398E-1,1.7867237E-1,-2.3239087E-1,1.1878217E0,-1.8869594E-1,-3.464487E-1,-2.798546E-1,-3.469041E-1,5.7467484E-1,-2.7472812E-1,-3.3636844E-1,9.8411155E-1,-2.054508E-2,-2.7443582E-1,-3.1551206E-1,-7.551051E-2,-3.4202054E-1,6.224005E-1,-2.853781E-1,1.0656345E0,7.757741E-2,-2.9221433E-1,7.139131E-1,4.412473E-2,-1.1698922E-1,5.9898895E-1,5.1193976E-1,-3.26899E-1,4.6654575E-2,-3.6158353E-1,7.7245995E-2,6.170135E-1,6.925881E-1,-3.7148485E-1,5.2891903E-2,6.383137E-1,3.2572627E-1,1.6014232E-1,-3.228786E-1,2.5020882E-1,-3.5057417E-1,4.6423846E-1,-2.1040048E-1,5.661179E-1],"categories":[],"categories_nodes":[],"categories_segments":[],"categories_sizes":[],"default_left":[0,0,0,0,0,0,0,0,0,0,0,0,0,0,0,0,0,0,0,0,0,0,0,0,0,0,0,0,0,0,0,0,0,0,0,0,0,0,0,0,0,0,0,0,0,0,0,0,0,0,0,0,0,0,0,0,0,0,0,0,0,0,0,0,0,0,0,0,0,0,0,0,0,0,0,0,0,0,0,0,0,0,0,0,0,0,0,0,0,0,0,0,0,0,0,0,0,0,0,0,0,0,0,0,0,0,0],"id":1,"left_children":[1,3,5,7,9,11,13,15,17,19,21,23,25,27,29,31,33,35,37,39,41,43,45,47,49,51,53,55,-1,57,59,-1,61,63,-1,65,67,69,71,73,-1,75,77,79,81,-1,-1,83,85,87,-1,89,91,93,95,97,99,101,-1,103,105,-1,-1,-1,-1,-1,-1,-1,-1,-1,-1,-1,-1,-1,-1,-1,-1,-1,-1,-1,-1,-1,-1,-1,-1,-1,-1,-1,-1,-1,-1,-1,-1,-1,-1,-1,-1,-1,-1,-1,-1,-1,-1,-1,-1,-1,-1],"loss_changes":[1.6426387E3,1.319436E2,1.7094666E2,1.2091064E1,5.807271E1,9.655111E1,4.6867218E1,4.265991E0,1.6165466E1,2.472165E1,4.2986122E1,3.7234802E1,6.66333E1,3.487332E1,1.0236862E2,1.56369705E1,3.114502E0,2.5250175E1,2.4344833E1,1.153183E1,3.279193E1,4.8118732E1,3.2248684E1,6.0895973E1,4.1895325E1,6.776658E1,4.4130653E1,4.0867767E1,0E0,3.2369102E1,3.7239216E1,0E0,1.3108786E1,2.0174496E1,0E0,1.302248E2,3.5352974E0,8.847046E-1,1.9377907E1,6.0018013E1,0E0,3.90504E1,2.6148468E1,9.921723E1,4.0940697E1,0E0,0E0,2.5036198E1,7.114552E1,4.0713654E1,0E0,8.02277E1,5.007293E1,2.0343918E1,2.2623682E1,6.2059692E1,5.115753E1,1.7375557E1,0E0,2.7999031E1,1.9866058E1,0E0,0E0,0E0,0E0,0E0,0E0,0E0,0E0,0E0,0E0,0E0,0E0,0E0,0E0,0E0,0E0,0E0,0E0,0E0,0E0,0E0,0E0,0E0,0E0,0E0,0E0,0E0,0E0,0E0,0E0,0E0,0E0,0E0,0E0,0E0,0E0,0E0,0E0,0E0,0E0,0E0,0E0,0E0,0E0,0E0,0E0],"parents":[2147483647,0,0,1,1,2,2,3,3,4,4,5,5,6,6,7,7,8,8,9,9,10,10,11,11,12,12,13,13,14,14,15,15,16,16,17,17,18,18,19,19,20,20,21,21,22,22,23,23,24,24,25,25,26,26,27,27,29,29,30,30,32,32,33,33,35,35,36,36,37,37,38,38,39,39,41,41,42,42,43,43,44,44,47,47,48,48,49,49,51,51,52,52,53,53,54,54,55,55,56,56,57,57,59,59,60,60],"right_children":[2,4,6,8,10,12,14,16,18,20,22,24,26,28,30,32,34,36,38,40,42,44,46,48,50,52,54,56,-1,58,60,-1,62,64,-1,66,68,70,72,74,-1,76,78,80,82,-1,-1,84,86,88,-1,90,92,94,96,98,100,102,-1,104,106,-1,-1,-1,-1,-1,-1,-1,-1,-1,-1,-1,-1,-1,-1,-1,-1,-1,-1,-1,-1,-1,-1,-1,-1,-1,-1,-1,-1,-1,-1,-1,-1,-1,-1,-1,-1,-1,-1,-1,-1,-1,-1,-1,-1,-1,-1],"split_conditions":[5.7E1,4.5E1,6.8E1,3.8E1,1E0,1.1038E2,3.43E1,5.837E1,4E1,2.56E1,4.22E1,6.1E1,1E0,3.41E1,1.8299E2,5.793E1,1.4E0,8.341E1,4.58E1,2.06E1,3.2E1,3.1E1,1.1038E2,3E1,3.01E1,1E0,1E0,7.4E1,7.147666E-1,7.249E1,1E0,-3.3574995E-1,1E0,1.32E0,-3.4323457E-1,8.154E1,3E1,2.55E1,1E0,2.03E1,-3.5153738E-1,1.0528E2,4.04E1,2.73E1,2.4373E2,-2.354454E-1,1.0446714E0,1E0,3.03E1,3E1,-3.5293496E-1,2.1338E2,6.4E1,3.08E1,1.1255E2,1E0,1E0,6.42E1,-3.593485E-1,3.44E1,2.4009E2,-2.8391084E-1,3.3663338E-1,-3.3773398E-1,1.7867237E-1,-2.3239087E-1,1.1878217E0,-1.8869594E-1,-3.464487E-1,-2.798546E-1,-3.469041E-1,5.7467484E-1,-2.7472812E-1,-3.3636844E-1,9.8411155E-1,-2.054508E-2,-2.7443582E-1,-3.1551206E-1,-7.551051E-2,-3.4202054E-1,6.224005E-1,-2.853781E-1,1.0656345E0,7.757741E-2,-2.9221433E-1,7.139131E-1,4.412473E-2,-1.1698922E-1,5.9898895E-1,5.1193976E-1,-3.26899E-1,4.6654575E-2,-3.6158353E-1,7.7245995E-2,6.170135E-1,6.925881E-1,-3.7148485E-1,5.2891903E-2,6.383137E-1,3.2572627E-1,1.6014232E-1,-3.228786E-1,2.5020882E-1,-3.5057417E-1,4.6423846E-1,-2.1040048E-1,5.661179E-1],"split_indices":[1,1,1,1,2,7,8,7,1,8,8,1,3,8,7,7,1,7,8,8,8,8,7,8,8,9,2,1,0,7,5,0,6,1,0,7,8,8,0,8,0,7,8,8,7,0,0,9,8,8,0,7,1,8,7,4,5,7,0,8,7,0,0,0,0,0,0,0,0,0,0,0,0,0,0,0,0,0,0,0,0,0,0,0,0,0,0,0,0,0,0,0,0,0,0,0,0,0,0,0,0,0,0,0,0,0,0],"split_type":[0,0,0,0,0,0,0,0,0,0,0,0,0,0,0,0,0,0,0,0,0,0,0,0,0,0,0,0,0,0,0,0,0,0,0,0,0,0,0,0,0,0,0,0,0,0,0,0,0,0,0,0,0,0,0,0,0,0,0,0,0,0,0,0,0,0,0,0,0,0,0,0,0,0,0,0,0,0,0,0,0,0,0,0,0,0,0,0,0,0,0,0,0,0,0,0,0,0,0,0,0,0,0,0,0,0,0],"sum_hessian":[3.9303408E3,2.2155845E3,1.7147563E3,1.5254055E3,6.9017883E2,6.568719E2,1.0578844E3,1.202098E3,3.2330753E2,6.031621E2,8.701671E1,3.9378152E2,2.6309036E2,9.166745E2,1.4120987E2,4.0956352E1,1.1611417E3,9.7838005E1,2.2546951E2,1.2604902E2,4.771131E2,7.961453E1,7.402181E0,1.8562276E2,2.0815878E2,2.0556094E2,5.7529434E1,9.0497034E2,1.1704158E1,6.925595E1,7.1953926E1,3.0356468E1,1.0599882E1,4.5154274E1,1.1159874E3,3.6033672E1,6.1804333E1,2.1760776E2,7.8617635E0,1.7936392E1,1.08112625E2,2.6518292E2,2.1193018E2,3.807392E1,4.154061E1,2.0099835E0,5.3921976E0,8.127076E1,1.04352E2,1.2893307E2,7.92257E1,5.795929E1,1.4760165E2,4.8373726E1,9.155706E0,2.2489252E2,6.800778E2,2.0849615E1,4.8406334E1,5.3179485E1,1.8774437E1,4.353127E0,6.2467556E0,3.754758E1,7.6066937E0,2.9874899E1,6.1587734E0,2.8339619E1,3.346471E1,5.5558235E1,1.6204951E2,4.142618E0,3.7191453E0,1.5093903E1,2.8424885E0,1.8953851E2,7.564441E1,1.5561996E2,5.6310223E1,1.5244757E1,2.2829163E1,4.038873E1,1.1518824E0,2.2213947E1,5.905681E1,1.606191E1,8.8290085E1,1.2233274E2,6.6003413E0,4.5544556E1,1.2414733E1,1.1313981E2,3.446184E1,7.7689056E0,4.060482E1,1.2918024E0,7.863904E0,2.0818478E2,1.6707726E1,3.5591922E2,3.241586E2,5.81277E0,1.5036845E1,3.3894095E0,4.9790077E1,1.617588E1,2.598556E0],"tree_param":{"num_deleted":"0","num_feature":"10","num_nodes":"107","size_leaf_vector":"1"}},{"base_weights":[-2.921841E-1,-8.249676E-1,2.5244325E-1,-1.0138879E0,-4.5739958E-1,-2.633534E-2,4.1044208E-1,-1.0684435E0,-8.177453E-1,-9.917754E-1,-3.4001723E-1,-6.2485564E-1,1.2908258E-1,2.5403985E-1,5.798827E-1,-6.9017357E-1,-1.0820258E0,-4.833448E-1,-9.764396E-1,-3.0747145E-1,-3.3513683E-1,-4.488257E-1,2.4449627E-1,-9.330891E-1,6.3635916E-1,-9.243692E-1,2.3661408E-1,3.438006E-1,-9.1597307E-1,1.9826169E0,5.19165E-1,-3.1983334E-1,1.6893609E-1,-7.439126E-1,-3.287571E-1,2.1836047E0,-5.9257644E-1,-1.0412803E0,4.9089658E-1,-3.171479E-1,1.5542189E0,1.3208965E0,-4.847661E-1,-3.2342374E-1,4.9716657E-1,-1.0805118E0,-2.7094781E-2,2.0044155E0,-5.2666736E-1,3.8101983E-1,-3.524794E-1,3.1016831E0,1.8022715E-1,1.9177155E-1,8.6744916E-1,5.9829652E-2,-3.9342666E-1,-2.7416393E-1,2.5038545E0,8.897707E-2,6.2336564E-1,2.9747906E-1,-3.546922E-1,9.418786E-2,-3.3215222E-1,-2.0509048E-1,1.2685751E0,-5.395094E-2,-3.3106872E-1,-2.520944E-1,-3.3201E-1,4.2990205E-1,-2.532139E-1,-2.1910886E-1,6.6779745E-1,-2.9106838E-1,9.6651244E-1,-1.8659788E-1,-1.1627104E-3,2.6398486E-1,-1.8156976E-1,-3.5413152E-1,-1.913104E-1,1.164806E0,-3.4615082E-1,-2.7337205E-1,9.293311E-1,-3.3419427E-1,6.447284E-1,-2.8379065E-1,5.9869117E-1,-2.0266746E-1,1.1752015E0,6.96753E-1,3.2972064E-2,9.1429514E-1,4.8903447E-2,3.1379375E-1,-3.6478168E-1,4.046525E-1,-3.219138E-1,8.236128E-1,-2.1161102E-1,2.2028749E-1,-1.6901156E-1,3.7160558E-1,1.2570168E-1],"categories":[],"categories_nodes":[],"categories_segments":[],"categories_sizes":[],"default_left":[0,0,0,0,0,0,0,0,0,0,0,0,0,0,0,0,0,0,0,0,0,0,0,0,0,0,0,0,0,0,0,0,0,0,0,0,0,0,0,0,0,0,0,0,0,0,0,0,0,0,0,0,0,0,0,0,0,0,0,0,0,0,0,0,0,0,0,0,0,0,0,0,0,0,0,0,0,0,0,0,0,0,0,0,0,0,0,0,0,0,0,0,0,0,0,0,0,0,0,0,0,0,0,0,0,0,0],"id":2,"left_children":[1,3,5,7,9,11,13,15,17,19,21,23,25,27,29,31,33,35,37,39,-1,41,43,45,47,49,51,53,55,57,59,-1,61,63,-1,65,67,69,71,-1,73,75,77,-1,79,81,83,85,87,89,-1,91,93,95,97,99,-1,-1,101,103,105,-1,-1,-1,-1,-1,-1,-1,-1,-1,-1,-1,-1,-1,-1,-1,-1,-1,-1,-1,-1,-1,-1,-1,-1,-1,-1,-1,-1,-1,-1,-1,-1,-1,-1,-1,-1,-1,-1,-1,-1,-1,-1,-1,-1,-1,-1],"loss_changes":[1.0369988E3,1.2497485E2,7.787031E1,1.188501E1,3.8243973E1,5.9648212E1,2.9753357E1,4.029297E0,1.352359E1,9.113586E0,3.2279808E1,5.197767E1,5.7899452E1,6.2119743E1,4.503035E1,1.1478529E1,3.373169E0,2.6596943E1,1.7434586E1,2.7391844E1,0E0,2.7786064E1,2.727987E1,1.4211861E1,4.330489E1,1.594006E1,7.4211525E1,4.3403618E1,1.6364265E1,3.5627342E1,2.3240982E1,0E0,1.3968896E1,1.5069994E1,0E0,2.4180714E1,1.756533E1,1.3137817E0,1.1531282E1,0E0,1.0375542E1,4.129037E1,2.7649544E1,0E0,2.9175304E1,3.3037872E0,7.4733406E1,4.2382206E1,2.619343E1,1.9848242E1,0E0,2.997815E1,6.828166E1,3.444647E1,4.696878E1,2.061729E1,0E0,0E0,1.6649376E1,4.3565174E1,5.20688E1,0E0,0E0,0E0,0E0,0E0,0E0,0E0,0E0,0E0,0E0,0E0,0E0,0E0,0E0,0E0,0E0,0E0,0E0,0E0,0E0,0E0,0E0,0E0,0E0,0E0,0E0,0E0,0E0,0E0,0E0,0E0,0E0,0E0,0E0,0E0,0E0,0E0,0E0,0E0,0E0,0E0,0E0,0E0,0E0,0E0,0E0],"parents":[2147483647,0,0,1,1,2,2,3,3,4,4,5,5,6,6,7,7,8,8,9,9,10,10,11,11,12,12,13,13,14,14,15,15,16,16,17,17,18,18,19,19,21,21,22,22,23,23,24,24,25,25,26,26,27,27,28,28,29,29,30,30,32,32,33,33,35,35,36,36,37,37,38,38,40,40,41,41,42,42,44,44,45,45,46,46,47,47,48,48,49,49,51,51,52,52,53,53,54,54,55,55,58,58,59,59,60,60],"right_children":[2,4,6,8,10,12,14,16,18,20,22,24,26,28,30,32,34,36,38,40,-1,42,44,46,48,50,52,54,56,58,60,-1,62,64,-1,66,68,70,72,-1,74,76,78,-1,80,82,84,86,88,90,-1,92,94,96,98,100,-1,-1,102,104,106,-1,-1,-1,-1,-1,-1,-1,-1,-1,-1,-1,-1,-1,-1,-1,-1,-1,-1,-1,-1,-1,-1,-1,-1,-1,-1,-1,-1,-1,-1,-1,-1,-1,-1,-1,-1,-1,-1,-1,-1,-1,-1,-1,-1,-1,-1],"split_conditions":[5.7E1,4.5E1,6.8E1,3.8E1,2.56E1,2.73E1,1.0361E2,5.837E1,4E1,2.06E1,1E0,2E0,6.71E1,9.944E1,1.0528E2,5.793E1,1.4E0,5.837E1,4.58E1,2.03E1,-3.3513683E-1,2.57E1,5E1,6.6E1,6.1E1,2.81E1,6.853E1,1E0,7.2E1,7.3E1,2.64E1,-3.1983334E-1,3.1E1,7.053E1,-3.287571E-1,1E0,3E1,2.55E1,1E0,-3.171479E-1,4.6E1,5.3E1,2E0,-3.2342374E-1,2E0,2E0,2.13E1,5.9E1,6.7E1,1E0,-3.524794E-1,1E0,2.76E1,1.7E1,2E0,2.73E1,-3.9342666E-1,-2.7416393E-1,2E0,2.42E1,2.85E1,2.9747906E-1,-3.546922E-1,9.418786E-2,-3.3215222E-1,-2.0509048E-1,1.2685751E0,-5.395094E-2,-3.3106872E-1,-2.520944E-1,-3.3201E-1,4.2990205E-1,-2.532139E-1,-2.1910886E-1,6.6779745E-1,-2.9106838E-1,9.6651244E-1,-1.8659788E-1,-1.1627104E-3,2.6398486E-1,-1.8156976E-1,-3.5413152E-1,-1.913104E-1,1.164806E0,-3.4615082E-1,-2.7337205E-1,9.293311E-1,-3.3419427E-1,6.447284E-1,-2.8379065E-1,5.9869117E-1,-2.0266746E-1,1.1752015E0,6.96753E-1,3.2972064E-2,9.1429514E-1,4.8903447E-2,3.1379375E-1,-3.6478168E-1,4.046525E-1,-3.219138E-1,8.236128E-1,-2.1161102E-1,2.2028749E-1,-1.6901156E-1,3.7160558E-1,1.2570168E-1],"split_indices":[1,1,1,1,8,8,7,7,1,8,2,9,7,7,7,7,1,7,8,8,0,8,1,1,1,8,7,2,1,1,8,0,8,7,0,2,8,8,0,0,1,1,9,0,9,5,8,1,1,6,0,5,8,8,9,8,0,0,9,8,8,0,0,0,0,0,0,0,0,0,0,0,0,0,0,0,0,0,0,0,0,0,0,0,0,0,0,0,0,0,0,0,0,0,0,0,0,0,0,0,0,0,0,0,0,0,0],"split_type":[0,0,0,0,0,0,0,0,0,0,0,0,0,0,0,0,0,0,0,0,0,0,0,0,0,0,0,0,0,0,0,0,0,0,0,0,0,0,0,0,0,0,0,0,0,0,0,0,0,0,0,0,0,0,0,0,0,0,0,0,0,0,0,0,0,0,0,0,0,0,0,0,0,0,0,0,0,0,0,0,0,0,0,0,0,0,0,0,0,0,0,0,0,0,0,0,0,0,0,0,0,0,0,0,0,0,0],"sum_hessian":[3.5720637E3,1.8054053E3,1.7666584E3,1.1913331E3,6.140721E2,6.3936835E2,1.12729E3,9.286018E2,2.6273138E2,1.0925346E2,5.0481863E2,1.3117767E2,5.0819067E2,5.874985E2,5.3979156E2,3.398273E1,8.946191E2,8.5857735E1,1.7687366E2,1.744882E1,9.180464E1,4.2578918E2,7.902945E1,1.0562396E2,2.5553709E1,4.6365585E1,4.6182507E2,5.462942E2,4.1204296E1,2.1082355E1,5.187092E2,2.347108E1,1.0511652E1,3.7311203E1,8.5730786E2,2.6309557E0,8.3226776E1,1.6966656E2,7.207093E0,1.2747608E1,4.701212E0,7.763402E0,4.180258E2,1.2152382E1,6.687707E1,9.067652E1,1.4947437E1,1.1409446E1,1.4144263E1,7.3826237E0,3.898296E1,7.871281E0,4.539538E2,4.2443555E2,1.2185864E2,1.2127473E1,2.9076822E1,3.100379E0,1.7981976E1,1.0150486E2,4.1720435E2,6.6992126E0,3.8124392E0,9.571952E0,2.7739252E1,1.3724129E0,1.2585427E0,4.6787186E1,3.6439594E1,4.5067307E1,1.2459926E2,4.182157E0,3.024936E0,1.0484382E0,3.6527739E0,3.742268E0,4.021134E0,3.2499252E2,9.3033264E1,4.979031E1,1.7086761E1,7.262242E1,1.8054106E1,2.7967608E0,1.2150677E1,3.1570597E0,8.252386E0,1.2077092E1,2.067171E0,4.279554E0,3.1030698E0,1.4283681E0,6.442913E0,1.3409528E1,4.4054428E2,3.185115E0,4.2125043E2,1.1269916E2,9.159488E0,5.5836415E0,6.5438313E0,1.6857817E1,1.1241583E0,5.09644E1,5.054046E1,1.0275427E2,3.1445007E2],"tree_param":{"num_deleted":"0","num_feature":"10","num_nodes":"107","size_leaf_vector":"1"}},{"base_weights":[-2.4671404E-1,-9.213444E-1,6.300291E-2,-1.0264921E0,-6.8218887E-1,-2.1771626E-1,2.3472811E-1,-8.870613E-1,-3.2344115E-1,-2.1622562E-1,-7.929226E-1,-3.704396E-1,3.391373E-1,1.1231959E-1,4.3750757E-1,-9.402324E-1,1.8479948E0,-4.1118497E-1,1.5747763E0,-1.0185163E-1,-8.722183E-1,-2.4831155E-1,-8.9342177E-1,-4.8849392E-1,9.023879E-1,1.8023497E-1,-8.015303E-1,1.5073849E0,3.4180197E-1,-1.529651E-1,-1.0021852E0,-1.7814106E-1,9.2446834E-1,8.430525E-1,-7.4670327E-1,-2.6268455E-1,1.4572555E0,-6.6930693E-1,1.0742228E0,-9.094194E-1,2.6921687E-1,-9.071773E-1,-1.5772364E-1,-1.0478896E0,-1.7096807E-1,1.737848E-1,-3.476113E-1,4.5934156E-1,1.681213E0,-4.9896732E-1,2.1614999E-1,-1.0236717E0,9.1745645E-1,1.7431853E0,-2.9894516E-1,-6.981546E-1,4.4852874E-1,-3.1429762E-1,4.1886142E-1,-1.7103238E-1,-3.2165456E-1,4.463717E-1,-2.6146656E-1,-3.183543E-1,-5.1031806E-2,-3.1953752E-1,4.2531517E-1,-1.9130781E-1,-3.1449115E-1,3.5713726E-1,-2.504299E-1,1.1611416E-1,-3.2744852E-1,-1.0568895E-1,4.635238E-2,-3.5798514E-1,6.652242E-2,1.026603E0,-2.2699538E-1,-3.238903E-1,2.3678386E-1,6.106563E-1,-8.5270986E-2,-2.8270876E-1,5.933921E-1,2.0608188E-1,-3.1372595E-1,3.351074E-1,5.3612303E-2,-3.3492365E-1,-9.346783E-2,4.2870328E-1,-2.3162384E-1,7.4276227E-1,3.005641E-1,-7.3856288E-3,-3.8482645E-1,3.7297866E-1,1.12571135E-1],"categories":[],"categories_nodes":[],"categories_segments":[],"categories_sizes":[],"default_left":[0,0,0,0,0,0,0,0,0,0,0,0,0,0,0,0,0,0,0,0,0,0,0,0,0,0,0,0,0,0,0,0,0,0,0,0,0,0,0,0,0,0,0,0,0,0,0,0,0,0,0,0,0,0,0,0,0,0,0,0,0,0,0,0,0,0,0,0,0,0,0,0,0,0,0,0,0,0,0,0,0,0,0,0,0,0,0,0,0,0,0,0,0,0,0,0,0,0,0],"id":3,"left_children":[1,3,5,7,9,11,13,15,-1,17,19,21,23,25,27,29,31,33,35,37,39,41,43,45,47,49,51,53,55,57,59,-1,-1,61,63,-1,-1,65,-1,67,69,71,73,75,77,79,-1,81,83,85,87,89,91,93,-1,95,97,-1,-1,-1,-1,-1,-1,-1,-1,-1,-1,-1,-1,-1,-1,-1,-1,-1,-1,-1,-1,-1,-1,-1,-1,-1,-1,-1,-1,-1,-1,-1,-1,-1,-1,-1,-1,-1,-1,-1,-1,-1,-1],"loss_changes":[6.848185E2,2.5231445E1,1.0837201E2,4.187378E0,1.6231949E1,7.270038E1,3.4568596E1,3.0635193E1,0E0,2.2442093E1,1.3966583E1,4.2582985E1,8.6305824E1,5.4203316E1,5.3203484E1,9.385986E0,1.4259633E1,2.4651257E1,5.520821E1,5.993342E1,1.000943E1,3.2366867E1,1.3936485E1,3.359796E1,3.716825E1,1.9905022E1,2.4017677E1,2.6997337E1,5.3904953E1,2.2874836E1,4.866989E0,0E0,0E0,1.5136605E1,8.081854E0,0E0,0E0,2.1914059E1,0E0,7.7444916E0,9.16023E0,1.6077736E1,2.9219082E1,1.946511E1,5.199031E1,3.0718658E1,0E0,8.433228E1,3.2612373E1,2.7344212E1,2.5824127E1,3.2179909E0,7.536885E0,1.8954933E1,0E0,1.7817797E1,2.5075836E1,0E0,0E0,0E0,0E0,0E0,0E0,0E0,0E0,0E0,0E0,0E0,0E0,0E0,0E0,0E0,0E0,0E0,0E0,0E0,0E0,0E0,0E0,0E0,0E0,0E0,0E0,0E0,0E0,0E0,0E0,0E0,0E0,0E0,0E0,0E0,0E0,0E0,0E0,0E0,0E0,0E0,0E0],"parents":[2147483647,0,0,1,1,2,2,3,3,4,4,5,5,6,6,7,7,9,9,10,10,11,11,12,12,13,13,14,14,15,15,16,16,17,17,18,18,19,19,20,20,21,21,22,22,23,23,24,24,25,25,26,26,27,27,28,28,29,29,30,30,33,33,34,34,37,37,39,39,40,40,41,41,42,42,43,43,44,44,45,45,47,47,48,48,49,49,50,50,51,51,52,52,53,53,55,55,56,56],"right_children":[2,4,6,8,10,12,14,16,-1,18,20,22,24,26,28,30,32,34,36,38,40,42,44,46,48,50,52,54,56,58,60,-1,-1,62,64,-1,-1,66,-1,68,70,72,74,76,78,80,-1,82,84,86,88,90,92,94,-1,96,98,-1,-1,-1,-1,-1,-1,-1,-1,-1,-1,-1,-1,-1,-1,-1,-1,-1,-1,-1,-1,-1,-1,-1,-1,-1,-1,-1,-1,-1,-1,-1,-1,-1,-1,-1,-1,-1,-1,-1,-1,-1,-1],"split_conditions":[4.8E1,3.8E1,6.3E1,7.619E1,1E0,2E0,1.2721E2,7.592E1,-3.2344115E-1,4.05E1,6.42E1,6E1,9.621E1,3.47E1,1.4116E2,1.4E0,2.9E1,3.9E1,4.6E1,6.386E1,4.58E1,2.56E1,2.0158E2,1E0,3.43E1,5.926E1,8E1,3.37E1,2.58E1,6.799E1,5.837E1,-1.7814106E-1,9.2446834E-1,1.0146E2,9.298E1,-2.6268455E-1,1.4572555E0,3.74E1,1.0742228E0,8.37E1,1E0,4.9E1,5.7E1,1E0,2.0304E2,5.4E1,-3.476113E-1,1.0528E2,1.0872E2,1E0,6.136E1,1E0,1E0,1E0,-2.9894516E-1,1.971E2,2.68E1,-3.1429762E-1,4.1886142E-1,-1.7103238E-1,-3.2165456E-1,4.463717E-1,-2.6146656E-1,-3.183543E-1,-5.1031806E-2,-3.1953752E-1,4.2531517E-1,-1.9130781E-1,-3.1449115E-1,3.5713726E-1,-2.504299E-1,1.1611416E-1,-3.2744852E-1,-1.0568895E-1,4.635238E-2,-3.5798514E-1,6.652242E-2,1.026603E0,-2.2699538E-1,-3.238903E-1,2.3678386E-1,6.106563E-1,-8.5270986E-2,-2.8270876E-1,5.933921E-1,2.0608188E-1,-3.1372595E-1,3.351074E-1,5.3612303E-2,-3.3492365E-1,-9.346783E-2,4.2870328E-1,-2.3162384E-1,7.4276227E-1,3.005641E-1,-7.3856288E-3,-3.8482645E-1,3.7297866E-1,1.12571135E-1],"split_indices":[1,1,1,7,9,9,7,7,0,8,7,1,7,8,7,1,1,1,1,7,8,8,7,0,8,7,1,8,8,7,7,0,0,7,7,0,0,8,0,7,0,1,1,4,7,1,0,7,7,9,7,4,5,0,0,7,8,0,0,0,0,0,0,0,0,0,0,0,0,0,0,0,0,0,0,0,0,0,0,0,0,0,0,0,0,0,0,0,0,0,0,0,0,0,0,0,0,0,0],"split_type":[0,0,0,0,0,0,0,0,0,0,0,0,0,0,0,0,0,0,0,0,0,0,0,0,0,0,0,0,0,0,0,0,0,0,0,0,0,0,0,0,0,0,0,0,0,0,0,0,0,0,0,0,0,0,0,0,0,0,0,0,0,0,0,0,0,0,0,0,0,0,0,0,0,0,0,0,0,0,0,0,0,0,0,0,0,0,0,0,0,0,0,0,0,0,0,0,0,0,0],"sum_hessian":[3.2762363E3,1.03022E3,2.2460164E3,7.1331146E2,3.1690857E2,8.5237354E2,1.3936427E3,1.9771031E2,5.1560114E2,6.1417755E1,2.5549083E2,6.691786E2,1.8319496E2,8.7001135E2,5.236314E2,1.9458371E2,3.1265922E0,5.6083233E1,5.334519E0,2.6533422E1,2.289574E2,5.4368964E2,1.25488914E2,7.4240265E1,1.08954704E2,8.10574E2,5.9437366E1,4.178406E1,4.8184735E2,1.4448479E1,1.8013524E2,1.2234491E0,1.9031432E0,1.1517126E1,4.456611E1,3.474361E0,1.8601578E0,2.369975E1,2.8336718E0,2.219277E2,7.029697E0,6.4627235E1,4.7906244E2,1.030132E2,2.2475716E1,3.7713642E1,3.6526623E1,7.046144E1,3.849326E1,4.006156E1,7.7051245E2,5.2993595E1,6.443772E0,3.846541E1,3.318655E0,4.4331837E1,4.375155E2,9.364131E0,5.084347E0,2.6388458E1,1.5374678E2,8.465516E0,3.0516095E0,2.829404E1,1.6272068E1,2.033309E1,3.3666613E0,7.695573E1,1.4497197E2,3.7893062E0,3.240391E0,7.91943E0,5.6707806E1,2.9506122E2,1.8400119E2,9.248252E1,1.0530674E1,2.4714427E0,2.0004272E1,1.2171995E1,2.5541649E1,2.2028873E1,4.8432568E1,3.6905608E0,3.48027E1,1.2561338E1,2.7500221E1,2.9595737E1,7.409167E2,4.6385E1,6.6085978E0,5.0645394E0,1.3792323E0,1.8168346E1,2.0297062E1,2.1083267E1,2.324857E1,3.5593735E1,4.0192178E2],"tree_param":{"num_deleted":"0","num_feature":"10","num_nodes":"99","size_leaf_vector":"1"}},{"base_weights":[-2.0695232E-1,-8.677496E-1,3.471953E-2,-9.8987734E-1,-6.1171263E-1,-1.4175256E-1,1.9218913E-1,-5.096894E-1,-1.0122318E0,-4.4969377E-1,-9.668024E-1,-5.5322057E-1,-4.081198E-2,1.7822492E-1,1.3077332E0,-3.0506575E-1,3.9141595E-1,-5.842193E-1,-1.0341259E0,1.3409564E-1,-6.149862E-1,-3.189536E-1,5.516531E-1,-4.0688008E-1,-3.3979753E-1,2.155715E0,-8.3325215E-2,2.4294415E-1,-1.74595E-1,8.137447E-1,4.820476E-1,6.022746E-1,-3.0234265E-1,-3.0617663E-1,5.00804E-1,-3.1669745E-1,-8.7286913E-1,-3.0774662E-1,2.2960188E0,-3.185615E-1,-4.5713556E-1,3.110456E-1,-1.8023026E-1,-5.631491E-1,1.3958756E0,8.283503E-1,1.2528037E0,1.0552957E-1,-2.899741E-1,1.9147201E-1,6.106003E-1,-3.728825E-1,8.4469825E-1,3.672378E-1,-2.0330757E-1,4.2132863E-1,-2.806626E-1,-1.3126709E-1,-3.103031E-1,-1.8947564E-1,3.4977266E-1,-2.574248E-1,1.1687154E0,1.176005E0,-1.6823874E-1,-2.6572606E-1,-6.674385E-2,6.920731E-1,-2.7053207E-1,-3.1184462E-1,7.342459E-1,-2.3887213E-4,2.5344843E-1,-2.2167288E-1,-2.7819159E-2,8.372639E-2,-1.2043336E-1,-6.452824E-2,3.1746513E-1,-6.0798176E-2,-4.356335E-1,-7.9734534E-2,3.7476835E-1],"categories":[],"categories_nodes":[],"categories_segments":[],"categories_sizes":[],"default_left":[0,0,0,0,0,0,0,0,0,0,0,0,0,0,0,0,0,0,0,0,0,0,0,0,0,0,0,0,0,0,0,0,0,0,0,0,0,0,0,0,0,0,0,0,0,0,0,0,0,0,0,0,0,0,0,0,0,0,0,0,0,0,0,0,0,0,0,0,0,0,0,0,0,0,0,0,0,0,0,0,0,0,0],"id":4,"left_children":[1,3,5,7,9,11,13,15,17,19,21,23,25,27,29,-1,31,33,35,37,39,-1,41,43,-1,45,47,49,51,53,-1,-1,-1,-1,55,-1,57,59,61,-1,63,-1,-1,65,67,69,-1,71,73,75,77,79,81,-1,-1,-1,-1,-1,-1,-1,-1,-1,-1,-1,-1,-1,-1,-1,-1,-1,-1,-1,-1,-1,-1,-1,-1,-1,-1,-1,-1,-1,-1],"loss_changes":[4.8417633E2,2.4781555E1,6.1740562E1,5.3673096E0,1.480043E1,4.3495804E1,1.805516E1,1.2461092E1,4.2938232E0,1.7810154E1,1.2601517E1,1.7034546E1,7.8849434E1,2.6544853E1,8.1359863E-1,0E0,2.5152237E1,1.3642371E1,8.0059814E-1,4.021428E1,9.627003E0,0E0,3.7306504E0,4.763079E1,0E0,3.9536446E1,3.2322144E1,1.8450634E1,3.6793087E1,5.383458E0,0E0,0E0,0E0,0E0,1.2509171E1,0E0,4.0599136E0,1.754562E1,3.9351444E1,0E0,5.1062004E1,0E0,0E0,1.669836E1,3.0447344E1,3.5579384E1,0E0,3.404186E1,3.4940914E1,4.4898476E1,4.459275E1,2.75899E1,1.3673317E1,0E0,0E0,0E0,0E0,0E0,0E0,0E0,0E0,0E0,0E0,0E0,0E0,0E0,0E0,0E0,0E0,0E0,0E0,0E0,0E0,0E0,0E0,0E0,0E0,0E0,0E0,0E0,0E0,0E0,0E0],"parents":[2147483647,0,0,1,1,2,2,3,3,4,4,5,5,6,6,7,7,8,8,9,9,10,10,11,11,12,12,13,13,14,14,16,16,17,17,18,18,19,19,20,20,22,22,23,23,25,25,26,26,27,27,28,28,29,29,34,34,36,36,37,37,38,38,40,40,43,43,44,44,45,45,47,47,48,48,49,49,50,50,51,51,52,52],"right_children":[2,4,6,8,10,12,14,16,18,20,22,24,26,28,30,-1,32,34,36,38,40,-1,42,44,-1,46,48,50,52,54,-1,-1,-1,-1,56,-1,58,60,62,-1,64,-1,-1,66,68,70,-1,72,74,76,78,80,82,-1,-1,-1,-1,-1,-1,-1,-1,-1,-1,-1,-1,-1,-1,-1,-1,-1,-1,-1,-1,-1,-1,-1,-1,-1,-1,-1,-1,-1,-1],"split_conditions":[4.8E1,3.8E1,6.8E1,5.837E1,1.0146E2,2.73E1,4.45E1,3.01E1,1.4E0,1E0,4.58E1,2.65E1,2.74E1,3.33E1,1E0,-3.0506575E-1,3.1E1,1.32E0,2E0,9.351E1,2.54E1,-3.189536E-1,1E0,2.64E1,-3.3979753E-1,1E0,1E0,3.14E1,2.2973E2,1E0,4.820476E-1,6.022746E-1,-3.0234265E-1,-3.0617663E-1,1E0,-3.1669745E-1,7.619E1,4.7E1,1E0,-3.185615E-1,2.55E1,3.110456E-1,-1.8023026E-1,1E0,9.75E1,6E1,1.2528037E0,1E0,8.493E1,3.01E1,7.6E1,3.94E1,3.44E1,3.672378E-1,-2.0330757E-1,4.2132863E-1,-2.806626E-1,-1.3126709E-1,-3.103031E-1,-1.8947564E-1,3.4977266E-1,-2.574248E-1,1.1687154E0,1.176005E0,-1.6823874E-1,-2.6572606E-1,-6.674385E-2,6.920731E-1,-2.7053207E-1,-3.1184462E-1,7.342459E-1,-2.3887213E-4,2.5344843E-1,-2.2167288E-1,-2.7819159E-2,8.372639E-2,-1.2043336E-1,-6.452824E-2,3.1746513E-1,-6.0798176E-2,-4.356335E-1,-7.9734534E-2,3.7476835E-1],"split_indices":[1,1,1,7,7,8,8,8,1,9,8,8,8,8,2,0,8,1,9,7,8,0,0,8,0,0,6,8,7,6,0,0,0,0,6,0,7,1,6,0,8,0,0,6,7,1,0,3,7,8,1,8,8,0,0,0,0,0,0,0,0,0,0,0,0,0,0,0,0,0,0,0,0,0,0,0,0,0,0,0,0,0,0],"split_type":[0,0,0,0,0,0,0,0,0,0,0,0,0,0,0,0,0,0,0,0,0,0,0,0,0,0,0,0,0,0,0,0,0,0,0,0,0,0,0,0,0,0,0,0,0,0,0,0,0,0,0,0,0,0,0,0,0,0,0,0,0,0,0,0,0,0,0,0,0,0,0,0,0,0,0,0,0,0,0,0,0,0,0],"sum_hessian":[3.0306719E3,8.1088873E2,2.2197832E3,5.470728E2,2.6381595E2,1.0467819E3,1.1730013E3,2.539405E1,5.216788E2,1.8271426E2,8.110168E1,2.0532538E2,8.414565E2,1.1596449E3,1.3356494E1,1.6166233E1,9.227817E0,2.6734015E1,4.9494473E2,4.0359386E1,1.4235489E2,7.654331E1,4.5583653E0,1.6528409E2,4.004128E1,1.5033154E1,8.264233E2,9.8016125E2,1.7948369E2,6.4402776E0,6.916216E0,4.0802116E0,5.147605E0,1.9108452E1,7.6255617E0,4.317481E2,6.3196606E1,3.422277E1,6.1366153E0,3.566314E1,1.0669174E2,3.2784574E0,1.2799081E0,1.5273235E2,1.2551746E1,9.923368E0,5.1097846E0,4.3205814E2,3.9436517E2,8.6112396E2,1.19037254E2,1.50785E2,2.8698679E1,5.1911263E0,1.2491515E0,4.694444E0,2.9311173E0,1.8103065E1,4.509354E1,2.8525623E1,5.6971483E0,2.221034E0,3.9155812E0,1.6165224E0,1.0507522E2,7.7624306E1,7.510804E1,8.985069E0,3.5666766E0,4.774043E0,5.149326E0,3.78606E2,5.345214E1,1.19540146E2,2.74825E2,7.507187E2,1.1040527E2,4.2028683E1,7.700857E1,1.3126842E2,1.9516588E1,7.754545E0,2.0944134E1],"tree_param":{"num_deleted":"0","num_feature":"10","num_nodes":"83","size_leaf_vector":"1"}},{"base_weights":[-1.6929775E-1,-8.673704E-1,5.847648E-3,-9.6116847E-1,-6.0045755E-1,-2.8084862E-1,8.393892E-2,-7.692056E-1,-3.1195903E-1,-1.7371354E-1,-8.5646206E-1,-8.448017E-1,-1.9919291E-1,-2.9487082E-1,1.1841981E-1,-8.474905E-1,1.2579794E0,-3.047055E-1,1.5959789E-1,-9.183283E-1,3.0369183E-1,3.223275E-2,-3.13977E-1,8.121576E-2,-5.219279E-1,-4.6343496E-1,-1.0305705E-1,7.794749E-2,5.150053E-1,-7.3815286E-2,-9.2960423E-1,-2.4381994E-1,1.1731114E0,4.2254704E-1,-2.815909E-1,-5.853973E-1,-3.1199166E-1,2.7759957E-1,-2.014884E-1,-2.7866635E-1,4.0326312E-1,-2.1108055E-1,6.5068984E-1,-8.088357E-1,3.1131502E-2,-8.5824734E-1,3.6087808E-1,-9.88213E-3,3.7142622E-1,9.4762343E-1,5.820568E-2,-2.7886188E-1,2.8308237E-1,-1.2844208E-1,-3.0950204E-1,-1.118903E-1,2.8758538E-1,-3.0233333E-1,4.3944663E-1,-2.2128506E-1,4.2883575E-2,5.6856626E-1,-9.8439604E-2,-1.1000457E-1,-3.0748537E-1,2.676866E-1,-1.7758892E-1,-4.1681233E-1,-4.4244982E-2,2.5829905E-1,-2.4084076E-1,-1.3313569E-1,2.9725345E-2,3.436365E-1,3.3286873E-2,-6.949217E-2,4.6474755E-1,-1.9532853E-1,3.3200115E-1],"categories":[],"categories_nodes":[],"categories_segments":[],"categories_sizes":[],"default_left":[0,0,0,0,0,0,0,0,0,0,0,0,0,0,0,0,0,0,0,0,0,0,0,0,0,0,0,0,0,0,0,0,0,0,0,0,0,0,0,0,0,0,0,0,0,0,0,0,0,0,0,0,0,0,0,0,0,0,0,0,0,0,0,0,0,0,0,0,0,0,0,0,0,0,0,0,0,0,0],"id":5,"left_children":[1,3,5,7,9,11,13,15,-1,17,19,21,23,25,27,29,31,-1,33,35,37,39,-1,41,43,-1,45,47,49,51,53,-1,-1,55,-1,57,-1,-1,-1,-1,-1,59,61,63,65,67,69,71,73,75,77,-1,-1,-1,-1,-1,-1,-1,-1,-1,-1,-1,-1,-1,-1,-1,-1,-1,-1,-1,-1,-1,-1,-1,-1,-1,-1,-1,-1],"loss_changes":[3.4602216E2,1.363443E1,5.0698284E1,5.520294E0,1.6268417E1,2.2155357E1,2.328028E1,2.0980515E1,0E0,1.6327284E1,7.0021744E0,1.0830009E1,3.8482655E1,3.5506947E1,2.6152966E1,7.644966E0,3.1014925E1,0E0,1.2562848E1,3.0028534E0,3.9523387E0,1.6860283E1,0E0,3.8114452E1,3.138184E1,0E0,4.5871483E1,3.8202778E1,2.9773178E1,1.196586E1,5.172249E0,0E0,0E0,1.5147268E1,0E0,2.4123089E1,0E0,0E0,0E0,0E0,0E0,2.8350315E1,9.518855E1,1.2060959E1,3.7263523E1,1.8588669E1,4.7982437E1,5.4019035E1,6.869819E1,5.530327E1,5.6111523E1,0E0,0E0,0E0,0E0,0E0,0E0,0E0,0E0,0E0,0E0,0E0,0E0,0E0,0E0,0E0,0E0,0E0,0E0,0E0,0E0,0E0,0E0,0E0,0E0,0E0,0E0,0E0,0E0],"parents":[2147483647,0,0,1,1,2,2,3,3,4,4,5,5,6,6,7,7,9,9,10,10,11,11,12,12,13,13,14,14,15,15,16,16,18,18,19,19,20,20,21,21,23,23,24,24,26,26,27,27,28,28,29,29,30,30,33,33,35,35,41,41,42,42,43,43,44,44,45,45,46,46,47,47,48,48,49,49,50,50],"right_children":[2,4,6,8,10,12,14,16,-1,18,20,22,24,26,28,30,32,-1,34,36,38,40,-1,42,44,-1,46,48,50,52,54,-1,-1,56,-1,58,-1,-1,-1,-1,-1,60,62,64,66,68,70,72,74,76,78,-1,-1,-1,-1,-1,-1,-1,-1,-1,-1,-1,-1,-1,-1,-1,-1,-1,-1,-1,-1,-1,-1,-1,-1,-1,-1,-1,-1],"split_conditions":[4.5E1,3.8E1,5.7E1,7.619E1,4E1,2.56E1,6.655E1,7.592E1,-3.1195903E-1,1E0,4.58E1,2.06E1,3.15E1,2.42E1,1E0,1.4E0,2E0,-3.047055E-1,1.0146E2,2.55E1,1E0,2.03E1,-3.13977E-1,2.97E1,3.99E1,-4.6343496E-1,1E0,7.9E1,9.444E1,1.32E0,5.837E1,-2.4381994E-1,1.1731114E0,8.154E1,-2.815909E-1,2.54E1,-3.1199166E-1,2.7759957E-1,-2.014884E-1,-2.7866635E-1,4.0326312E-1,8.782E1,5.1E1,5E1,4.18E1,1E0,6.289E1,2.66E1,2.43E1,7.976E1,1E0,-2.7886188E-1,2.8308237E-1,-1.2844208E-1,-3.0950204E-1,-1.118903E-1,2.8758538E-1,-3.0233333E-1,4.3944663E-1,-2.2128506E-1,4.2883575E-2,5.6856626E-1,-9.8439604E-2,-1.1000457E-1,-3.0748537E-1,2.676866E-1,-1.7758892E-1,-4.1681233E-1,-4.4244982E-2,2.5829905E-1,-2.4084076E-1,-1.3313569E-1,2.9725345E-2,3.436365E-1,3.3286873E-2,-6.949217E-2,4.6474755E-1,-1.9532853E-1,3.3200115E-1],"split_indices":[1,1,1,7,1,8,7,7,0,0,8,8,8,8,4,1,9,0,7,8,0,8,0,8,8,0,0,1,7,1,7,0,0,7,0,8,0,0,0,0,0,7,1,1,8,6,7,8,8,7,2,0,0,0,0,0,0,0,0,0,0,0,0,0,0,0,0,0,0,0,0,0,0,0,0,0,0,0,0],"split_type":[0,0,0,0,0,0,0,0,0,0,0,0,0,0,0,0,0,0,0,0,0,0,0,0,0,0,0,0,0,0,0,0,0,0,0,0,0,0,0,0,0,0,0,0,0,0,0,0,0,0,0,0,0,0,0,0,0,0,0,0,0,0,0,0,0,0,0,0,0,0,0,0,0,0,0,0,0,0,0],"sum_hessian":[2.8290764E3,5.6664825E2,2.262428E3,4.173743E2,1.4927396E2,4.8376962E2,1.7786584E3,1.24486084E2,2.928882E2,5.6601402E1,9.2672554E1,6.000446E1,4.2376517E2,1.4776366E2,1.6308948E3,1.2041778E2,4.068301E0,1.5471612E1,4.112979E1,8.817879E1,4.4937687E0,1.1380691E1,4.8623768E1,2.2715213E2,1.9661304E2,1.8720709E1,1.2904295E2,1.4809568E3,1.4993799E2,1.1736402E1,1.0868138E2,2.6741707E0,1.3941302E0,3.3680862E1,7.4489284E0,2.5151955E1,6.3026833E1,2.7758055E0,1.7179633E0,6.737193E0,4.6434975E0,1.5052228E2,7.662985E1,1.2915137E2,6.746167E1,4.878353E1,8.0259415E1,1.1405807E3,3.4037616E2,7.64554E1,7.348259E1,6.4216895E0,5.3147125E0,1.9258648E1,8.942273E1,1.3681759E1,1.9999104E1,2.1276985E1,3.8749704E0,6.0081142E1,9.044113E1,3.3323803E1,4.330605E1,4.328687E1,8.58645E1,2.8139301E1,3.932237E1,2.7373554E1,2.1409979E1,5.631629E1,2.3943121E1,2.2832423E2,9.122564E2,8.484572E1,2.5553044E2,2.6033537E1,5.0421867E1,4.405666E1,2.942593E1],"tree_param":{"num_deleted":"0","num_feature":"10","num_nodes":"79","size_leaf_vector":"1"}},{"base_weights":[-1.4004445E-1,-7.6449513E-1,9.660136E-3,-9.301157E-1,-4.92263E-1,-7.3297895E-2,2.0673063E-1,-7.095605E-1,-3.0816084E-1,-3.6152995E-1,-3.1792918E-1,-4.5800347E-2,-9.024444E-1,9.279501E-1,1.5967003E-1,-7.924036E-1,8.082982E-1,-2.9744308E-2,-6.9030255E-1,-1.5740085E-1,1.21640064E-1,-1.488528E-1,-3.8868275E-1,-3.3854872E-1,1.3264111E0,-9.144316E-1,2.2423987E-1,-3.0590087E-1,-4.4700724E-1,-2.2498275E-1,5.9577054E-1,-4.0434343E-1,6.2068564E-1,-3.090765E-1,-4.3430144E-1,-3.254545E-1,-1.3284516E-1,1.8294592E-1,-5.0227076E-1,-7.429023E-1,5.464541E-1,1.6539166E0,-4.4017345E-1,-3.3928597E-1,3.4352255E-1,1.4373131E-1,6.3961643E-1,-2.1412994E-1,2.7884763E-1,1.41339E-1,-2.4377772E-1,3.9869243E-1,-6.1357535E-2,3.6559546E-1,-2.7031076E-1,2.250061E-1,-5.117816E-2,1.6208372E-1,1.3990987E-2,-4.5054758E-1,5.6975696E-2,-4.0732214E-1,3.556674E-1,5.686274E-1,-2.4463518E-1,-2.2650115E-1,6.323585E-2,7.013945E-2,4.5207313E-1],"categories":[],"categories_nodes":[],"categories_segments":[],"categories_sizes":[],"default_left":[0,0,0,0,0,0,0,0,0,0,0,0,0,0,0,0,0,0,0,0,0,0,0,0,0,0,0,0,0,0,0,0,0,0,0,0,0,0,0,0,0,0,0,0,0,0,0,0,0,0,0,0,0,0,0,0,0,0,0,0,0,0,0,0,0,0,0,0,0],"id":6,"left_children":[1,3,5,7,9,11,13,15,-1,17,-1,19,21,23,25,27,29,31,33,35,37,39,-1,-1,41,43,45,-1,47,-1,-1,49,51,-1,53,-1,55,57,59,61,-1,63,-1,-1,-1,65,67,-1,-1,-1,-1,-1,-1,-1,-1,-1,-1,-1,-1,-1,-1,-1,-1,-1,-1,-1,-1,-1,-1],"loss_changes":[2.4999991E2,2.2858734E1,3.5296295E1,6.132019E0,1.4287205E1,3.4601887E1,2.1559914E1,1.3361496E1,0E0,1.7676046E1,0E0,2.7520954E1,1.4242279E1,3.342895E1,4.1929657E1,7.1140327E0,1.2005251E1,2.0179379E1,6.640213E0,1.9978424E1,2.262772E1,2.2227272E1,0E0,0E0,3.2714752E1,1.6595774E1,1.891282E1,0E0,1.5370149E1,0E0,0E0,1.9148996E1,1.7973116E1,0E0,3.8272644E1,0E0,2.885318E1,2.6140686E1,3.6941544E1,1.869867E1,0E0,1.9496674E1,0E0,0E0,0E0,2.8924923E1,3.201977E1,0E0,0E0,0E0,0E0,0E0,0E0,0E0,0E0,0E0,0E0,0E0,0E0,0E0,0E0,0E0,0E0,0E0,0E0,0E0,0E0,0E0,0E0],"parents":[2147483647,0,0,1,1,2,2,3,3,4,4,5,5,6,6,7,7,9,9,11,11,12,12,13,13,14,14,15,15,16,16,17,17,18,18,19,19,20,20,21,21,24,24,25,25,26,26,28,28,31,31,32,32,34,34,36,36,37,37,38,38,39,39,41,41,45,45,46,46],"right_children":[2,4,6,8,10,12,14,16,-1,18,-1,20,22,24,26,28,30,32,34,36,38,40,-1,-1,42,44,46,-1,48,-1,-1,50,52,-1,54,-1,56,58,60,62,-1,64,-1,-1,-1,66,68,-1,-1,-1,-1,-1,-1,-1,-1,-1,-1,-1,-1,-1,-1,-1,-1,-1,-1,-1,-1,-1,-1],"split_conditions":[4.8E1,3.8E1,1.6214E2,7.619E1,2E0,1.4116E2,1.7412E2,7.592E1,-3.0816084E-1,8.706E1,-3.1792918E-1,7.4E1,2.76E1,2.73E1,5.4E1,3E0,2E0,8.221E1,2.96E1,5.926E1,8.2E1,2.73E1,-3.8868275E-1,-3.3854872E-1,8E1,4.73E1,2E0,-3.0590087E-1,1.4E1,-2.2498275E-1,5.9577054E-1,6.42E1,8.37E1,-3.090765E-1,3.03E1,-3.254545E-1,6.257E1,2.43E1,1E0,7.9E1,5.464541E-1,3.45E1,-4.4017345E-1,-3.3928597E-1,3.4352255E-1,2.61E1,1E0,-2.1412994E-1,2.7884763E-1,1.41339E-1,-2.4377772E-1,3.9869243E-1,-6.1357535E-2,3.6559546E-1,-2.7031076E-1,2.250061E-1,-5.117816E-2,1.6208372E-1,1.3990987E-2,-4.5054758E-1,5.6975696E-2,-4.0732214E-1,3.556674E-1,5.686274E-1,-2.4463518E-1,-2.2650115E-1,6.323585E-2,7.013945E-2,4.5207313E-1],"split_indices":[1,1,7,7,5,7,7,7,0,7,0,1,8,8,1,5,9,7,8,7,1,8,0,0,1,8,9,0,1,0,0,7,7,0,8,0,7,8,6,1,0,8,0,0,0,8,2,0,0,0,0,0,0,0,0,0,0,0,0,0,0,0,0,0,0,0,0,0,0],"split_type":[0,0,0,0,0,0,0,0,0,0,0,0,0,0,0,0,0,0,0,0,0,0,0,0,0,0,0,0,0,0,0,0,0,0,0,0,0,0,0,0,0,0,0,0,0,0,0,0,0,0,0,0,0,0,0,0,0,0,0,0,0,0,0,0,0,0,0,0,0],"sum_hessian":[2.6731992E3,5.1614374E2,2.1570554E3,3.1940652E2,1.9673721E2,1.518473E3,6.385824E2,1.0016573E2,2.192408E2,1.6123189E2,3.550533E1,1.4707527E3,4.7720325E1,3.7969467E1,6.006129E2,9.5434944E1,4.730789E0,8.079097E1,8.044091E1,8.8257117E2,5.8818146E2,1.6833536E1,3.0886791E1,5.8655252E0,3.2103943E1,3.3312172E1,5.673008E2,5.6383327E1,3.905162E1,2.1926157E0,2.5381734E0,5.150581E1,2.928516E1,3.3255463E1,4.718545E1,2.1651022E1,8.6092017E2,5.3620087E2,5.198064E1,1.3412683E1,3.4208531E0,2.9100418E1,3.0035229E0,3.0551113E1,2.7610602E0,4.7632513E2,9.097563E1,3.311546E1,5.9361606E0,1.6330877E1,3.5174934E1,1.5430496E1,1.3854663E1,1.0035044E1,3.7150406E1,3.452732E1,8.263928E2,1.4724258E2,3.8895825E2,2.0789686E1,3.1190954E1,1.039459E1,3.0180922E0,2.6719622E1,2.3807974E0,3.235896E1,4.439662E2,6.2841045E1,2.8134584E1],"tree_param":{"num_deleted":"0","num_feature":"10","num_nodes":"69","size_leaf_vector":"1"}},{"base_weights":[-1.1343352E-1,-7.767205E-1,-5.6658033E-3,-8.9749396E-1,-4.9882132E-1,-5.970695E-1,8.945758E-3,-6.463672E-1,-3.0518577E-1,-1.450612E-1,-7.6009995E-1,1.6337E-1,-9.392259E-1,-1.7313422E-1,5.3224977E-2,-7.2924906E-1,6.265609E-1,3.2161945E-1,-6.0111904E-1,-8.492906E-1,4.686901E-1,-2.9779285E-1,9.563307E-1,-1.73567E-2,-3.5764837E-1,8.7824064E-1,-2.504188E-1,1.3243723E-1,-4.7555048E-2,1.19474836E-1,-8.4990853E-1,-2.0754966E-1,4.343896E-1,-1.1202332E-1,5.920423E-1,-8.078284E-1,4.887494E-1,-4.7526386E-1,-3.028887E-1,2.7686912E-1,-1.6568671E-1,5.4480284E-1,-3.4069538E-1,-3.1933308E-1,5.2676725E-1,-2.9808837E-1,1.5005293E0,-6.689191E-1,-1.0458528E-1,3.6252566E-2,4.4298583E-1,1.4451027E-2,-9.3161196E-1,-2.7134764E-1,2.9016137E-1,-8.3588436E-2,-3.015725E-1,3.5684904E-1,-1.3857146E-1,-1.4091936E-1,-2.9273906E-1,6.0990995E-1,-2.1956629E-1,-2.898453E-1,2.4986607E-1,7.4728537E-1,6.4644865E-3,1.5107904E-1,-2.2785637E-1,1.1139457E0,-4.673767E-2,2.3904128E-2,-2.2146137E-1,8.168773E-2,3.5762852E-1,-3.439166E-2,1.2503116E-1,-3.6599964E-1,1.9793083E-1],"categories":[],"categories_nodes":[],"categories_segments":[],"categories_sizes":[],"default_left":[0,0,0,0,0,0,0,0,0,0,0,0,0,0,0,0,0,0,0,0,0,0,0,0,0,0,0,0,0,0,0,0,0,0,0,0,0,0,0,0,0,0,0,0,0,0,0,0,0,0,0,0,0,0,0,0,0,0,0,0,0,0,0,0,0,0,0,0,0,0,0,0,0,0,0,0,0,0,0],"id":7,"left_children":[1,3,5,7,9,11,13,15,-1,17,19,21,23,25,27,29,31,33,35,37,39,-1,41,43,-1,45,47,49,51,53,55,-1,-1,57,-1,59,61,63,-1,-1,-1,-1,-1,-1,-1,-1,65,67,69,71,73,75,77,-1,-1,-1,-1,-1,-1,-1,-1,-1,-1,-1,-1,-1,-1,-1,-1,-1,-1,-1,-1,-1,-1,-1,-1,-1,-1],"loss_changes":[1.8135532E2,1.1453857E1,1.88743E1,6.7407684E0,1.0026983E1,1.3855677E1,1.7197428E1,9.125889E0,0E0,1.0372635E1,7.2859154E0,1.6710594E1,8.482803E0,3.4125072E1,1.3702278E1,8.049042E0,7.023821E0,1.762032E1,5.9228144E0,3.0554352E0,2.7808084E0,0E0,2.1319553E1,1.833178E1,0E0,3.5031635E1,2.3700167E1,2.8685246E1,4.1442253E1,1.0021064E1,5.7604294E0,0E0,0E0,9.7414875E0,0E0,7.343693E-1,1.0036485E1,1.3376509E1,0E0,0E0,0E0,0E0,0E0,0E0,0E0,0E0,3.2184628E1,1.1054741E1,5.7274387E1,2.4770151E1,2.871923E1,3.6777393E1,2.3544655E1,0E0,0E0,0E0,0E0,0E0,0E0,0E0,0E0,0E0,0E0,0E0,0E0,0E0,0E0,0E0,0E0,0E0,0E0,0E0,0E0,0E0,0E0,0E0,0E0,0E0,0E0],"parents":[2147483647,0,0,1,1,2,2,3,3,4,4,5,5,6,6,7,7,9,9,10,10,11,11,12,12,13,13,14,14,15,15,16,16,17,17,18,18,19,19,20,20,22,22,23,23,25,25,26,26,27,27,28,28,29,29,30,30,33,33,35,35,36,36,37,37,46,46,47,47,48,48,49,49,50,50,51,51,52,52],"right_children":[2,4,6,8,10,12,14,16,-1,18,20,22,24,26,28,30,32,34,36,38,40,-1,42,44,-1,46,48,50,52,54,56,-1,-1,58,-1,60,62,64,-1,-1,-1,-1,-1,-1,-1,-1,66,68,70,72,74,76,78,-1,-1,-1,-1,-1,-1,-1,-1,-1,-1,-1,-1,-1,-1,-1,-1,-1,-1,-1,-1,-1,-1,-1,-1,-1,-1],"split_conditions":[4.5E1,3.8E1,5.926E1,7.619E1,4E1,1E0,5.7E1,7.592E1,-3.0518577E-1,8.341E1,4.58E1,7.2E1,2.43E1,6.42E1,1E0,1.4E0,2E0,8.295E1,2E0,2.55E1,1E0,-2.9779285E-1,7.9E1,2.41E1,-3.5764837E-1,2.88E1,8.41E1,2.0486E2,2.2129E2,1.87E1,5.837E1,-2.0754966E-1,4.343896E-1,5.837E1,5.920423E-1,1E0,1E0,2.54E1,-3.028887E-1,2.7686912E-1,-1.6568671E-1,5.4480284E-1,-3.4069538E-1,-3.1933308E-1,5.2676725E-1,-2.9808837E-1,3.04E1,2.06E1,8.421E1,3.87E1,2E0,1E0,2.5272E2,-2.7134764E-1,2.9016137E-1,-8.3588436E-2,-3.015725E-1,3.5684904E-1,-1.3857146E-1,-1.4091936E-1,-2.9273906E-1,6.0990995E-1,-2.1956629E-1,-2.898453E-1,2.4986607E-1,7.4728537E-1,6.4644865E-3,1.5107904E-1,-2.2785637E-1,1.1139457E0,-4.673767E-2,2.3904128E-2,-2.2146137E-1,8.168773E-2,3.5762852E-1,-3.439166E-2,1.2503116E-1,-3.6599964E-1,1.9793083E-1],"split_indices":[1,1,7,7,1,9,1,7,0,7,8,1,8,7,5,1,9,7,9,8,0,0,1,8,0,8,7,7,7,8,7,0,0,7,0,9,6,8,0,0,0,0,0,0,0,0,8,8,7,8,9,2,7,0,0,0,0,0,0,0,0,0,0,0,0,0,0,0,0,0,0,0,0,0,0,0,0,0,0],"split_type":[0,0,0,0,0,0,0,0,0,0,0,0,0,0,0,0,0,0,0,0,0,0,0,0,0,0,0,0,0,0,0,0,0,0,0,0,0,0,0,0,0,0,0,0,0,0,0,0,0,0,0,0,0,0,0,0,0,0,0,0,0,0,0,0,0,0,0,0,0,0,0,0,0,0,0,0,0,0,0],"sum_hessian":[2.5361763E3,3.536052E2,2.182571E3,2.4493028E2,1.0867493E2,5.1662582E1,2.1309084E3,8.1168236E1,1.6376204E2,4.6827576E1,6.184735E1,1.6194029E1,3.546855E1,4.1626807E2,1.7146403E3,7.6607346E1,4.560886E0,2.3289936E1,2.3537638E1,5.7949944E1,3.8974066E0,6.4862585E0,9.707769E0,7.8664513E0,2.76021E1,2.7794165E1,3.884739E2,9.598736E2,7.547667E2,9.536564E0,6.7070786E1,1.8113413E0,2.7495444E0,1.9185553E1,4.104383E0,2.0002632E1,3.5350065E0,1.857756E1,3.9372383E1,2.7638907E0,1.1335161E0,6.9738545E0,2.733915E0,5.197245E0,2.6692061E0,6.78572E0,2.1008444E1,9.9461395E1,2.890125E2,7.3373444E2,2.2613918E2,7.062176E2,4.854911E1,4.288978E0,5.247586E0,1.493541E1,5.2135372E1,3.5564065E0,1.5629147E1,7.8991904E0,1.2103441E1,1.2667862E0,2.2682204E0,1.3698572E1,4.8789883E0,1.2172627E1,8.835816E0,6.807291E0,9.2654106E1,2.8786929E0,2.8613382E2,6.9562427E2,3.811017E1,1.852836E2,4.085557E1,5.3520465E2,1.7101292E2,4.1298462E1,7.2506495E0],"tree_param":{"num_deleted":"0","num_feature":"10","num_nodes":"79","size_leaf_vector":"1"}},{"base_weights":[-9.064097E-2,-7.269685E-1,-7.259861E-3,-8.6433935E-1,-4.387001E-1,-7.742603E-1,1.2678578E-3,-5.871753E-1,-3.0272907E-1,-1.13661304E-1,-7.194945E-1,1.2995529E-1,-3.908675E-1,5.506813E-2,-1.2767759E-1,-6.6731197E-1,5.186686E-1,-2.7845955E-1,9.435468E-2,-2.8590947E-1,-3.058463E-1,-2.9540253E-1,3.985268E-1,3.9472338E-2,1.7561876E0,-4.2394584E-1,7.0464216E-2,-2.9782543E-1,-2.8698084E-1,-1.9134659E-1,3.5378167E-1,-2.913447E-1,2.84321E-1,6.970881E-1,-6.4880097E-1,-5.1168473E-3,3.203187E-1,-3.0360743E-1,2.5343888E0,-5.76014E-1,5.535889E-1,1.8070631E0,4.599317E-3,-1.7487644E-1,2.6179427E-1,2.0948592E-1,-7.631492E-2,-2.1777754E-1,5.2415395E-1,-2.8598425E-1,2.5042248E-1,1.1095483E-2,-2.2754908E-1,-2.1017529E-1,1.6482225E-1,8.595216E-1,2.5975767E-1,-2.0282443E-1,1.5512878E-1,4.3826067E-1,-5.4928612E-2,-2.2435424E-1,6.851028E-1,1.107272E-1,-4.9104147E-2],"categories":[],"categories_nodes":[],"categories_segments":[],"categories_sizes":[],"default_left":[0,0,0,0,0,0,0,0,0,0,0,0,0,0,0,0,0,0,0,0,0,0,0,0,0,0,0,0,0,0,0,0,0,0,0,0,0,0,0,0,0,0,0,0,0,0,0,0,0,0,0,0,0,0,0,0,0,0,0,0,0,0,0,0,0],"id":8,"left_children":[1,3,5,7,9,11,13,15,-1,17,19,21,-1,23,25,27,29,-1,31,33,-1,-1,-1,35,37,39,41,-1,43,-1,-1,-1,45,47,49,51,53,-1,55,57,59,61,63,-1,-1,-1,-1,-1,-1,-1,-1,-1,-1,-1,-1,-1,-1,-1,-1,-1,-1,-1,-1,-1,-1],"loss_changes":[1.2890485E2,1.0766983E1,1.4058064E1,7.0144653E0,8.39463E0,1.1466162E1,1.47593155E1,6.3226604E0,0E0,7.5822253E0,6.165327E0,1.4170511E1,0E0,3.975717E1,3.6798405E1,7.5527077E0,4.663499E0,0E0,7.591666E0,8.1894865E0,0E0,0E0,0E0,1.864238E1,3.1893879E1,3.765427E1,4.302031E1,0E0,1.1011726E1,0E0,0E0,0E0,7.190481E0,1.072761E1,8.18548E0,4.080512E1,4.808851E1,0E0,3.540268E0,2.4177818E1,2.3207106E1,1.8443863E1,2.2352757E1,0E0,0E0,0E0,0E0,0E0,0E0,0E0,0E0,0E0,0E0,0E0,0E0,0E0,0E0,0E0,0E0,0E0,0E0,0E0,0E0,0E0,0E0],"parents":[2147483647,0,0,1,1,2,2,3,3,4,4,5,5,6,6,7,7,9,9,10,10,11,11,13,13,14,14,15,15,16,16,18,18,19,19,23,23,24,24,25,25,26,26,28,28,32,32,33,33,34,34,35,35,36,36,38,38,39,39,40,40,41,41,42,42],"right_children":[2,4,6,8,10,12,14,16,-1,18,20,22,-1,24,26,28,30,-1,32,34,-1,-1,-1,36,38,40,42,-1,44,-1,-1,-1,46,48,50,52,54,-1,56,58,60,62,64,-1,-1,-1,-1,-1,-1,-1,-1,-1,-1,-1,-1,-1,-1,-1,-1,-1,-1,-1,-1,-1,-1],"split_conditions":[4.5E1,3.8E1,1.93E1,7.619E1,4E1,1.7E1,3.21E1,7.592E1,-3.0272907E-1,1E0,1E0,7.9E1,-3.908675E-1,3.2E1,1.0573E2,3E0,2E0,-2.7845955E-1,2.38E1,2.55E1,-3.058463E-1,-2.9540253E-1,3.985268E-1,3.08E1,8.581E1,8E1,1.0741E2,-2.9782543E-1,2.95E1,-1.9134659E-1,3.5378167E-1,-2.913447E-1,8.341E1,2.54E1,4.51E1,3.04E1,8.6E1,-3.0360743E-1,9.276E1,1E0,8.1E1,5.8E1,1E0,-1.7487644E-1,2.6179427E-1,2.0948592E-1,-7.631492E-2,-2.1777754E-1,5.2415395E-1,-2.8598425E-1,2.5042248E-1,1.1095483E-2,-2.2754908E-1,-2.1017529E-1,1.6482225E-1,8.595216E-1,2.5975767E-1,-2.0282443E-1,1.5512878E-1,4.3826067E-1,-5.4928612E-2,-2.2435424E-1,6.851028E-1,1.107272E-1,-4.9104147E-2],"split_indices":[1,1,8,7,1,8,8,7,0,0,0,1,0,8,7,5,9,0,8,8,0,0,0,8,7,1,7,0,8,0,0,0,7,8,8,8,7,0,7,3,1,1,9,0,0,0,0,0,0,0,0,0,0,0,0,0,0,0,0,0,0,0,0,0,0],"split_type":[0,0,0,0,0,0,0,0,0,0,0,0,0,0,0,0,0,0,0,0,0,0,0,0,0,0,0,0,0,0,0,0,0,0,0,0,0,0,0,0,0,0,0,0,0,0,0,0,0,0,0,0,0,0,0,0,0,0,0,0,0,0,0,0,0],"sum_hessian":[2.4286216E3,2.8047122E2,2.1481504E3,1.8859848E2,9.187274E1,2.2633726E1,2.1255166E3,6.64412E1,1.2215728E2,4.3232704E1,4.864004E1,8.628676E0,1.4005049E1,1.5001696E3,6.2534705E2,6.2321533E1,4.119668E0,8.0904455E0,3.5142258E1,2.0689795E1,2.7950247E1,4.5631356E0,4.065541E0,1.4875549E3,1.261464E1,2.5015993E2,3.751871E2,3.2716583E1,2.9604948E1,1.5102404E0,2.6094275E0,4.6951847E0,3.0447075E1,5.330271E0,1.5359523E1,1.2845865E3,2.029684E2,2.7021394E0,9.9125E0,2.1683864E2,3.3321297E1,1.2743924E1,3.6244318E2,2.3981993E1,5.6229563E0,1.7049335E1,1.3397738E1,2.394334E0,2.935937E0,1.3040535E1,2.3189883E0,1.2174989E3,6.708765E1,3.6821274E1,1.6614713E2,7.6744E0,2.2381008E0,1.9900269E2,1.7835953E1,1.4491247E1,1.8830051E1,1.9141145E0,1.0829809E1,1.1410351E2,2.4833968E2],"tree_param":{"num_deleted":"0","num_feature":"10","num_nodes":"65","size_leaf_vector":"1"}},{"base_weights":[-7.221272E-2,-6.7725194E-1,-7.885757E-3,-8.268978E-1,-3.9157307E-1,-5.3058356E-1,2.8440254E-3,-5.2406466E-1,-3.0055347E-1,-1.0750252E-1,-6.842851E-1,1.1964235E-1,-8.5103023E-1,1.7346193E-1,-4.420529E-2,2.1794026E-1,-6.61858E-1,-2.6709324E-1,5.6649692E-2,-2.566632E-1,-2.9907098E-1,-2.7675632E-1,7.2682023E-1,1.2480726E-2,-3.3663467E-1,1.05971105E-1,2.3195772E0,-4.435052E-1,1.3362642E-2,-2.4291636E-1,9.407844E-1,-2.9534942E-1,-7.8129195E-2,-2.7129164E-1,2.002357E-1,5.620878E-1,-6.126757E-1,4.217127E-1,-2.967491E-1,-2.8568608E-1,4.0064976E-1,2.4703687E-1,-2.4902892E-1,8.7091964E-1,-2.1660434E-1,-6.603659E-1,6.736537E-1,1.2130991E0,-8.253692E-3,4.172229E-1,-1.798353E-1,3.2854876E-1,-2.843688E-1,1.548155E-1,-1.0196117E-1,-2.0285599E-1,4.0247467E-1,-2.7795166E-1,2.2808467E-1,-9.5512895E-3,2.0058487E-1,2.8897384E-1,-1.1310686E-1,-2.4697536E-1,6.634809E-2,3.4028983E-1,-3.1658486E-1,-3.2300532E-1,5.478196E-1,-2.3992555E-1,5.0621526E-3],"categories":[],"categories_nodes":[],"categories_segments":[],"categories_sizes":[],"default_left":[0,0,0,0,0,0,0,0,0,0,0,0,0,0,0,0,0,0,0,0,0,0,0,0,0,0,0,0,0,0,0,0,0,0,0,0,0,0,0,0,0,0,0,0,0,0,0,0,0,0,0,0,0,0,0,0,0,0,0,0,0,0,0,0,0,0,0,0,0,0,0],"id":9,"left_children":[1,3,5,7,9,11,13,15,-1,17,19,21,23,25,27,29,31,-1,33,35,-1,-1,37,39,-1,41,43,45,47,-1,49,-1,51,-1,53,55,57,-1,-1,-1,-1,59,61,-1,-1,63,65,67,69,-1,-1,-1,-1,-1,-1,-1,-1,-1,-1,-1,-1,-1,-1,-1,-1,-1,-1,-1,-1,-1,-1],"loss_changes":[9.125546E1,9.309113E0,1.1894094E1,7.2614136E0,6.525073E0,8.990239E0,1.6695337E1,5.860915E0,0E0,5.3779755E0,4.944086E0,1.0136553E1,6.731991E0,6.486784E1,3.7480923E1,7.825609E0,8.850721E0,0E0,5.039734E0,5.5252585E0,0E0,0E0,1.3053759E1,1.12863655E1,0E0,2.194014E1,2.6336037E1,5.0219635E1,3.6987213E1,0E0,5.0231986E0,0E0,1.9366407E1,0E0,5.5406384E0,6.609693E0,6.2480836E0,0E0,0E0,0E0,0E0,3.6837914E1,1.9717588E1,0E0,0E0,2.4959503E1,2.8191046E1,3.739472E1,2.7888727E1,0E0,0E0,0E0,0E0,0E0,0E0,0E0,0E0,0E0,0E0,0E0,0E0,0E0,0E0,0E0,0E0,0E0,0E0,0E0,0E0,0E0,0E0],"parents":[2147483647,0,0,1,1,2,2,3,3,4,4,5,5,6,6,7,7,9,9,10,10,11,11,12,12,13,13,14,14,15,15,16,16,18,18,19,19,22,22,23,23,25,25,26,26,27,27,28,28,30,30,32,32,34,34,35,35,36,36,41,41,42,42,45,45,46,46,47,47,48,48],"right_children":[2,4,6,8,10,12,14,16,-1,18,20,22,24,26,28,30,32,-1,34,36,-1,-1,38,40,-1,42,44,46,48,-1,50,-1,52,-1,54,56,58,-1,-1,-1,-1,60,62,-1,-1,64,66,68,70,-1,-1,-1,-1,-1,-1,-1,-1,-1,-1,-1,-1,-1,-1,-1,-1,-1,-1,-1,-1,-1,-1],"split_conditions":[4.5E1,3.8E1,5.926E1,7.619E1,4E1,1E0,7.894E1,1.4E0,-3.0055347E-1,1E0,1E0,7.2E1,2.43E1,7.879E1,8.623E1,1.32E0,2.99E1,-2.6709324E-1,2.38E1,2.55E1,-2.9907098E-1,-2.7675632E-1,7.9E1,2.41E1,-3.3663467E-1,3.04E1,2.94E1,1E0,8.706E1,-2.4291636E-1,1E0,-2.9534942E-1,3.1E1,-2.7129164E-1,3E1,2.54E1,4.51E1,4.217127E-1,-2.967491E-1,-2.8568608E-1,4.0064976E-1,7.271E1,5.963E1,8.7091964E-1,-2.1660434E-1,8.1E1,2.98E1,2.94E1,4.9E1,4.172229E-1,-1.798353E-1,3.2854876E-1,-2.843688E-1,1.548155E-1,-1.0196117E-1,-2.0285599E-1,4.0247467E-1,-2.7795166E-1,2.2808467E-1,-9.5512895E-3,2.0058487E-1,2.8897384E-1,-1.1310686E-1,-2.4697536E-1,6.634809E-2,3.4028983E-1,-3.1658486E-1,-3.2300532E-1,5.478196E-1,-2.3992555E-1,5.0621526E-3],"split_indices":[1,1,7,7,1,9,7,1,0,0,0,1,8,7,7,1,8,0,8,8,0,0,1,8,0,8,8,4,7,0,6,0,8,0,8,8,8,0,0,0,0,7,7,0,0,1,8,8,1,0,0,0,0,0,0,0,0,0,0,0,0,0,0,0,0,0,0,0,0,0,0],"split_type":[0,0,0,0,0,0,0,0,0,0,0,0,0,0,0,0,0,0,0,0,0,0,0,0,0,0,0,0,0,0,0,0,0,0,0,0,0,0,0,0,0,0,0,0,0,0,0,0,0,0,0,0,0,0,0,0,0,0,0,0,0,0,0,0,0,0,0,0,0,0,0],"sum_hessian":[2.3438103E3,2.2432753E2,2.1194827E3,1.4597015E2,7.8357376E1,4.165839E1,2.0778245E3,5.4912403E1,9.1057755E1,4.045955E1,3.7897827E1,1.3959492E1,2.7698896E1,4.485462E2,1.6292782E3,8.509242E0,4.640316E1,6.246687E0,3.421286E1,1.6774055E1,2.112377E1,4.947764E0,9.011728E0,6.845931E0,2.0852964E1,4.3588782E2,1.2658379E1,2.0445352E2,1.4248247E3,3.4641297E0,5.045112E0,2.9442863E1,1.6960297E1,3.7588172E0,3.0454042E1,4.907965E0,1.186609E1,6.586678E0,2.42505E0,4.1210256E0,2.7249057E0,3.1215244E2,1.23735374E2,1.0659115E1,1.9992638E0,1.715596E2,3.289392E1,2.4241974E1,1.4005826E3,3.9795885E0,1.0655237E0,7.1099815E0,9.850316E0,1.9245293E1,1.1208751E1,1.9472196E0,2.9607456E0,9.923059E0,1.9430305E0,1.8843036E2,1.2372209E2,1.1193371E1,1.12542E2,1.4485915E2,2.6700462E1,2.6245253E1,6.6486683E0,4.959364E0,1.9282608E1,4.2147297E1,1.3584354E3],"tree_param":{"num_deleted":"0","num_feature":"10","num_nodes":"71","size_leaf_vector":"1"}},{"base_weights":[-5.9002884E-2,-8.048363E-1,-1.9960359E-2,-4.955315E-1,-2.9845992E-1,-4.7996636E-2,1.9102694E-1,-2.8636083E-1,-2.7383876E-1,8.506297E-3,-2.935198E-1,8.42887E-1,-7.278009E-2,-6.813603E-1,1.9093464E-1,-7.3827906E-3,8.844741E-1,-5.504898E-1,2.2695923E-2,-2.8828827E-1,1.1374588E0,-5.0088453E-1,1.752627E-1,-2.831169E-1,1.4682746E-1,-2.528809E-1,6.4743584E-1,9.161125E-3,-4.557297E-1,2.4135564E-1,6.376219E-1,-9.207021E-1,-2.2538096E-1,1.1082929E-1,-3.5768148E-1,2.8124404E0,7.805622E-1,-3.6084434E-1,-1.4562456E-1,1.7946628E0,3.7327535E-2,2.4904807E-1,-1.6112484E-1,-7.2819954E-3,1.7769033E-1,4.8005936E-1,-1.05838105E-1,-3.0106586E-1,-5.754293E-3,6.644108E-1,-1.4516671E-1,3.0397588E-1,5.162444E-3,-2.0220219E-1,9.985983E-1,1.3779463E-1,6.239524E-1,-1.6230813E-1,2.5018543E-1,7.2184956E-1,-2.7422425E-1,1.02852084E-1,-1.3408466E-1],"categories":[],"categories_nodes":[],"categories_segments":[],"categories_sizes":[],"default_left":[0,0,0,0,0,0,0,0,0,0,0,0,0,0,0,0,0,0,0,0,0,0,0,0,0,0,0,0,0,0,0,0,0,0,0,0,0,0,0,0,0,0,0,0,0,0,0,0,0,0,0,0,0,0,0,0,0,0,0,0,0,0,0],"id":10,"left_children":[1,3,5,7,-1,9,11,-1,13,15,17,19,21,23,25,27,29,31,33,-1,35,37,39,-1,-1,-1,41,43,-1,45,-1,47,49,51,-1,53,55,-1,57,59,61,-1,-1,-1,-1,-1,-1,-1,-1,-1,-1,-1,-1,-1,-1,-1,-1,-1,-1,-1,-1,-1,-1],"loss_changes":[6.601686E1,6.135727E0,1.276195E1,4.308708E0,0E0,2.6413788E1,4.3581795E1,0E0,6.131733E0,2.1560827E1,2.895612E1,3.9878223E1,1.931689E1,5.715146E0,7.901124E0,3.80794E1,2.1512222E1,2.3448547E1,1.7334309E1,0E0,3.558738E1,1.6455112E1,2.5709114E1,0E0,0E0,0E0,2.9082298E0,2.938745E1,0E0,1.6151093E1,0E0,6.8205566E0,6.791648E1,1.2714487E1,0E0,2.1532501E1,2.1369152E1,0E0,1.80424E1,1.7167122E1,1.6037281E1,0E0,0E0,0E0,0E0,0E0,0E0,0E0,0E0,0E0,0E0,0E0,0E0,0E0,0E0,0E0,0E0,0E0,0E0,0E0,0E0,0E0,0E0],"parents":[2147483647,0,0,1,1,2,2,3,3,5,5,6,6,8,8,9,9,10,10,11,11,12,12,13,13,14,14,15,15,16,16,17,17,18,18,20,20,21,21,22,22,26,26,27,27,29,29,31,31,32,32,33,33,35,35,36,36,38,38,39,39,40,40],"right_children":[2,4,6,8,-1,10,12,-1,14,16,18,20,22,24,26,28,30,32,34,-1,36,38,40,-1,-1,-1,42,44,-1,46,-1,48,50,52,-1,54,56,-1,58,60,62,-1,-1,-1,-1,-1,-1,-1,-1,-1,-1,-1,-1,-1,-1,-1,-1,-1,-1,-1,-1,-1,-1],"split_conditions":[3.8E1,7.619E1,3.65E1,1E0,-2.9845992E-1,3.21E1,3.8E1,-2.8636083E-1,3E0,3.19E1,7E1,5.7E1,4.04E1,7.592E1,1.87E1,3.18E1,1E0,1.1667E2,2E0,-2.8828827E-1,5.8E1,1E0,4.05E1,-2.831169E-1,1.4682746E-1,-2.528809E-1,7.053E1,3.14E1,-4.557297E-1,1E0,6.376219E-1,1E0,1.187E2,6.616E1,-3.5768148E-1,3.67E1,1E0,-3.6084434E-1,2.0906E2,1E0,1E0,2.4904807E-1,-1.6112484E-1,-7.2819954E-3,1.7769033E-1,4.8005936E-1,-1.05838105E-1,-3.0106586E-1,-5.754293E-3,6.644108E-1,-1.4516671E-1,3.0397588E-1,5.162444E-3,-2.0220219E-1,9.985983E-1,1.3779463E-1,6.239524E-1,-1.6230813E-1,2.5018543E-1,7.2184956E-1,-2.7422425E-1,1.02852084E-1,-1.3408466E-1],"split_indices":[1,7,8,0,0,8,8,0,5,8,1,1,8,7,8,8,4,7,5,0,1,0,8,0,0,0,7,8,0,9,0,3,7,7,0,8,4,0,7,2,6,0,0,0,0,0,0,0,0,0,0,0,0,0,0,0,0,0,0,0,0,0,0],"split_type":[0,0,0,0,0,0,0,0,0,0,0,0,0,0,0,0,0,0,0,0,0,0,0,0,0,0,0,0,0,0,0,0,0,0,0,0,0,0,0,0,0,0,0,0,0,0,0,0,0,0,0,0,0,0,0,0,0,0,0,0,0,0,0],"sum_hessian":[2.266675E3,1.1177681E2,2.1548982E3,4.3911446E1,6.7865364E1,1.9028212E3,2.5207695E2,1.3224683E1,3.0686764E1,1.5476268E3,3.5519437E2,7.1991875E1,1.8008508E2,1.6102127E1,1.4584635E1,1.5210287E3,2.6598207E1,1.9554529E2,1.5964908E2,9.788506E0,6.2203373E1,6.568978E1,1.14395294E2,1.3312789E1,2.789339E0,4.2079883E0,1.0376647E1,1.5055461E3,1.5482454E1,1.8305696E1,8.292511E0,9.0573845E1,1.0497144E2,1.4969876E2,9.95032E0,9.717428E0,5.2485943E1,2.1272806E1,4.4416973E1,8.0362625E0,1.0635903E2,9.249044E0,1.127603E0,1.4248126E3,8.0733536E1,5.0539227E0,1.3251773E1,8.284695E1,7.7268953E0,9.330708E0,9.564074E1,1.3147337E1,1.3655142E2,1.2138269E0,8.503601E0,4.316653E1,9.319414E0,3.1962936E1,1.2454039E1,6.6473246E0,1.3889375E0,6.539544E1,4.0963596E1],"tree_param":{"num_deleted":"0","num_feature":"10","num_nodes":"63","size_leaf_vector":"1"}},{"base_weights":[-4.7537338E-2,-7.7500963E-1,-1.7353158E-2,-4.609303E-1,-2.9626748E-1,-2.6980136E-2,4.5273387E-1,-2.7847078E-1,-2.5498363E-1,-1.5880061E-2,-3.442402E-1,-1.3330331E-1,8.6707187E-1,-6.329945E-1,1.2404391E-1,-2.4837002E-2,1.2964054E0,5.445846E-1,-7.223316E-1,2.389685E-1,4.1763583E-1,-2.7600247E-1,1.16015874E-1,-2.3859634E-1,4.695351E-1,-2.0373804E-2,-3.492214E-1,-2.2827357E-1,1.7499261E0,-2.645148E-1,2.0154846E0,1.4793684E-1,-3.1040245E-1,4.316351E-1,-4.7225893E-1,3.1198603E-1,2.399402E-2,-2.09764E-1,-4.1308226E-3,6.043209E-1,2.426854E-1,9.661883E-1,1.8895231E-1,-3.262045E-1,1.3106067E-1],"categories":[],"categories_nodes":[],"categories_segments":[],"categories_sizes":[],"default_left":[0,0,0,0,0,0,0,0,0,0,0,0,0,0,0,0,0,0,0,0,0,0,0,0,0,0,0,0,0,0,0,0,0,0,0,0,0,0,0,0,0,0,0,0,0],"id":11,"left_children":[1,3,5,7,-1,9,11,-1,13,15,-1,17,19,21,23,25,27,29,31,33,-1,-1,-1,-1,35,37,-1,-1,39,-1,41,-1,-1,-1,43,-1,-1,-1,-1,-1,-1,-1,-1,-1,-1],"loss_changes":[4.8494606E1,5.418476E0,9.615941E0,3.3613954E0,0E0,2.5857779E1,1.0470154E1,0E0,3.9940925E0,2.4258379E1,0E0,7.7918773E0,7.9496994E0,4.408296E0,4.9734454E0,1.0390104E1,1.4385925E1,2.1046318E1,4.437246E0,1.1467645E1,0E0,0E0,0E0,0E0,2.3956165E0,9.141396E0,0E0,0E0,1.298893E0,0E0,6.0305195E0,0E0,0E0,0E0,5.3344913E0,0E0,0E0,0E0,0E0,0E0,0E0,0E0,0E0,0E0,0E0],"parents":[2147483647,0,0,1,1,2,2,3,3,5,5,6,6,8,8,9,9,11,11,12,12,13,13,14,14,15,15,16,16,17,17,18,18,19,19,24,24,25,25,28,28,30,30,34,34],"right_children":[2,4,6,8,-1,10,12,-1,14,16,-1,18,20,22,24,26,28,30,32,34,-1,-1,-1,-1,36,38,-1,-1,40,-1,42,-1,-1,-1,44,-1,-1,-1,-1,-1,-1,-1,-1,-1,-1],"split_conditions":[3.8E1,7.619E1,4.39E1,1E0,-2.9626748E-1,4.26E1,2.0046E2,-2.7847078E-1,3E0,4.22E1,-3.442402E-1,9.621E1,1E0,7.592E1,1.87E1,4.18E1,9.533E1,5.9E1,4.4E1,2.0609E2,4.1763583E-1,-2.7600247E-1,1.16015874E-1,-2.3859634E-1,1.89E1,1.93E1,-3.492214E-1,-2.2827357E-1,1E0,-2.645148E-1,1E0,1.4793684E-1,-3.1040245E-1,4.316351E-1,6.9E1,3.1198603E-1,2.399402E-2,-2.09764E-1,-4.1308226E-3,6.043209E-1,2.426854E-1,9.661883E-1,1.8895231E-1,-3.262045E-1,1.3106067E-1],"split_indices":[1,7,8,0,0,8,7,0,5,8,0,7,2,7,8,8,7,1,1,7,0,0,0,0,8,8,0,0,9,0,0,0,0,0,1,0,0,0,0,0,0,0,0,0,0],"split_type":[0,0,0,0,0,0,0,0,0,0,0,0,0,0,0,0,0,0,0,0,0,0,0,0,0,0,0,0,0,0,0,0,0,0,0,0,0,0,0,0,0,0,0,0,0],"sum_hessian":[2.2081135E3,8.698568E1,2.1211277E3,3.6386524E1,5.059916E1,2.0794844E3,4.164344E1,1.0057735E1,2.6328787E1,2.0600903E3,1.9394053E1,1.7528917E1,2.4114525E1,1.28466E1,1.3482188E1,2.047099E3,1.29913E1,8.184813E0,9.344105E0,1.1642263E1,1.247226E1,1.0101234E1,2.745365E0,3.3269768E0,1.0155211E1,2.0401243E3,6.974746E0,2.2241304E0,1.0767169E1,4.358768E0,3.8260448E0,1.7919835E0,7.5521216E0,3.9521575E0,7.6901064E0,3.4434452E0,6.7117662E0,1.864657E1,2.0214777E3,7.5143676E0,3.2528014E0,1.33803E0,2.488015E0,4.4698806E0,3.2202258E0],"tree_param":{"num_deleted":"0","num_feature":"10","num_nodes":"45","size_leaf_vector":"1"}},{"base_weights":[-3.5757948E-2,-6.570976E-1,-9.641707E-3,-7.4528284E-2,-7.602897E-1,-1.3409674E-1,2.3939045E-2,-2.4607058E-1,3.4177995E-1,-4.3829554E-1,-2.9639155E-1,-4.034697E-1,1.8853319E-1,1.949773E-1,-4.066213E-2,3.1011915E-1,-2.042383E-1,-6.5946E-1,-8.02348E-3,-4.870618E-1,6.5846056E-1,2.9535696E-1,-6.98045E-1,2.5350133E-1,-1.1971606E0,-7.5052893E-1,-1.9392766E-2,-2.6747778E-1,1.13101795E-1,1.6153888E-1,-2.860723E-1,2.7329496E-1,-2.646186E-1,-3.322999E-1,-1.218183E0,-2.2127002E-1,8.52573E-1,4.8648497E-1,-2.1282837E-1,-4.4502735E-1,4.403948E-1,-7.073488E-1,3.241437E-1,-1.9768604E0,4.0771616E-1,-1.0288266E0,6.019631E-1,-3.8378797E-2,4.969385E-1,-2.1381952E-1,2.2809212E-1,6.3853554E-2,-1.5980077E-1,1.8514407E-1,-4.4589806E-1,1.6019177E-2,3.872197E-1,2.2773517E-2,3.1786072E-1,1.8360126E-1,-3.2798404E-1,3.4534207E-1,-2.582599E-1,3.6058193E-1,-3.146458E-1,1.2718943E-2,1.6238624E-1,-2.4471292E-1,-6.351485E-1,-3.0556276E-1,3.420773E-1,-2.1184032E-1,-4.7150287E-1,3.288237E-2,-3.899592E-2,2.5626826E-1,-1.1677669E-1],"categories":[],"categories_nodes":[],"categories_segments":[],"categories_sizes":[],"default_left":[0,0,0,0,0,0,0,0,0,0,0,0,0,0,0,0,0,0,0,0,0,0,0,0,0,0,0,0,0,0,0,0,0,0,0,0,0,0,0,0,0,0,0,0,0,0,0,0,0,0,0,0,0,0,0,0,0,0,0,0,0,0,0,0,0,0,0,0,0,0,0,0,0,0,0,0,0],"id":12,"left_children":[1,3,5,7,9,11,13,-1,15,17,-1,19,21,23,25,-1,27,29,31,33,35,37,39,41,43,45,47,-1,-1,49,-1,-1,-1,51,53,-1,55,57,59,-1,61,63,65,67,69,71,-1,73,75,-1,-1,-1,-1,-1,-1,-1,-1,-1,-1,-1,-1,-1,-1,-1,-1,-1,-1,-1,-1,-1,-1,-1,-1,-1,-1,-1,-1],"loss_changes":[3.5297085E1,5.2180405E0,8.733123E0,4.7233605E0,5.023567E0,3.866377E1,1.819328E1,0E0,3.9478524E0,3.0995111E0,0E0,2.1828869E1,1.9404701E1,3.7079353E1,1.8034952E1,0E0,2.8783262E0,5.354684E0,1.0514183E1,2.5075119E1,5.535323E0,1.7743801E1,2.0409286E1,2.9687757E1,2.381148E1,2.8727852E1,1.1407377E1,0E0,0E0,3.9632668E0,0E0,0E0,0E0,2.0563803E1,2.0093082E1,0E0,5.6596746E0,3.1043392E1,3.7222404E1,0E0,1.0046759E1,2.0843681E1,2.4752514E1,3.1664658E-1,8.3082695E0,4.5351944E0,0E0,1.5217186E1,1.3400931E1,0E0,0E0,0E0,0E0,0E0,0E0,0E0,0E0,0E0,0E0,0E0,0E0,0E0,0E0,0E0,0E0,0E0,0E0,0E0,0E0,0E0,0E0,0E0,0E0,0E0,0E0,0E0,0E0],"parents":[2147483647,0,0,1,1,2,2,3,3,4,4,5,5,6,6,8,8,9,9,11,11,12,12,13,13,14,14,16,16,17,17,18,18,19,19,20,20,21,21,22,22,23,23,24,24,25,25,26,26,29,29,33,33,34,34,36,36,37,37,38,38,40,40,41,41,42,42,43,43,44,44,45,45,47,47,48,48],"right_children":[2,4,6,8,10,12,14,-1,16,18,-1,20,22,24,26,-1,28,30,32,34,36,38,40,42,44,46,48,-1,-1,50,-1,-1,-1,52,54,-1,56,58,60,-1,62,64,66,68,70,72,-1,74,76,-1,-1,-1,-1,-1,-1,-1,-1,-1,-1,-1,-1,-1,-1,-1,-1,-1,-1,-1,-1,-1,-1,-1,-1,-1,-1,-1,-1],"split_conditions":[3.9E1,1E0,2.63E1,3.8E1,7.619E1,7.8E1,2.86E1,-2.4607058E-1,2.41E1,2.99E1,-2.9639155E-1,2.1135E2,8.2E1,2.2973E2,2.88E1,3.1011915E-1,9.171E1,1.4E0,3.1E1,7.5E1,1E0,2.43E1,1.0187E2,5.1E1,7.9E1,2.1779E2,2.4009E2,-2.6747778E-1,1.13101795E-1,6.799E1,-2.860723E-1,2.7329496E-1,-2.646186E-1,7.664E1,2.04E1,-2.2127002E-1,2.56E1,2.33E1,7.417E1,-4.4502735E-1,1.971E2,2.64E1,1E0,6.8E1,1E0,7.5E1,6.019631E-1,9.374E1,1E0,-2.1381952E-1,2.2809212E-1,6.3853554E-2,-1.5980077E-1,1.8514407E-1,-4.4589806E-1,1.6019177E-2,3.872197E-1,2.2773517E-2,3.1786072E-1,1.8360126E-1,-3.2798404E-1,3.4534207E-1,-2.582599E-1,3.6058193E-1,-3.146458E-1,1.2718943E-2,1.6238624E-1,-2.4471292E-1,-6.351485E-1,-3.0556276E-1,3.420773E-1,-2.1184032E-1,-4.7150287E-1,3.288237E-2,-3.899592E-2,2.5626826E-1,-1.1677669E-1],"split_indices":[1,9,8,1,7,1,8,0,8,8,0,7,1,7,8,0,7,1,8,1,9,8,7,1,1,7,7,0,0,7,0,0,0,7,8,0,8,8,7,0,7,8,0,1,2,1,0,7,0,0,0,0,0,0,0,0,0,0,0,0,0,0,0,0,0,0,0,0,0,0,0,0,0,0,0,0,0],"split_type":[0,0,0,0,0,0,0,0,0,0,0,0,0,0,0,0,0,0,0,0,0,0,0,0,0,0,0,0,0,0,0,0,0,0,0,0,0,0,0,0,0,0,0,0,0,0,0,0,0,0,0,0,0,0,0,0,0,0,0,0,0,0,0,0,0,0,0,0,0,0,0,0,0,0,0,0,0],"sum_hessian":[2.17459E3,8.6741264E1,2.0878489E3,1.3311828E1,7.3429436E1,4.430074E2,1.6448416E3,4.42154E0,8.890288E0,3.1626879E1,4.1802555E1,2.4129375E2,2.0171365E2,4.5038437E2,1.1944572E3,3.5271869E0,5.363101E0,2.053765E1,1.108923E1,2.241877E2,1.710606E1,1.8061787E2,2.109578E1,4.3299945E2,1.7384941E1,3.3750324E1,1.1607068E3,2.2126176E0,3.1504836E0,5.535754E0,1.5001895E1,5.384956E0,5.704273E0,1.8622299E2,3.7964703E1,1.7464154E0,1.5359645E1,1.3128456E2,4.93333E1,1.2304322E1,8.791458E0,2.9036963E1,4.039625E2,1.1544483E1,5.840458E0,3.1225298E1,2.5250266E0,1.120433E3,4.02738E1,2.1728346E0,3.3629196E0,5.0033768E1,1.3618922E2,4.6736965E0,3.3291004E1,5.836356E0,9.523289E0,7.714501E1,5.4139557E1,2.5628593E1,2.3704706E1,5.7604694E0,3.0309882E0,4.0229955E0,2.5013966E1,1.7634605E2,2.2761642E2,1.9791098E0,9.565373E0,1.84935E0,3.991108E0,2.1026855E1,1.01984415E1,4.2831647E2,6.921165E2,2.8727669E1,1.1546133E1],"tree_param":{"num_deleted":"0","num_feature":"10","num_nodes":"77","size_leaf_vector":"1"}},{"base_weights":[-3.010475E-2,-7.108904E-1,-1.2362684E-2,-3.896066E-1,-2.9088563E-1,-5.912E-2,1.01323195E-1,-6.087195E-1,2.0358743E-2,-4.0312864E-2,-7.1561354E-1,2.0048046E-1,-1.7376278E-1,1.2374986E-1,-2.7687895E-1,7.2964215E-1,-2.4554884E-1,-8.174092E-2,1.5209258E-1,-8.523008E-2,-1.0545692E0,1.4526966E-1,7.56031E-1,-4.219315E-1,4.003335E-1,-1.9848022E-1,1.8596774E-1,2.7278343E-1,8.906905E-2,-3.1832764E-1,-1.952443E-2,4.9962658E-1,-3.8815388E-1,-6.1211497E-1,4.0699795E-1,-3.5198486E-1,1.494399E-1,1.02435865E-1,9.7447073E-1,1.3059689E0,-2.8631135E-3,-4.010668E-1,-2.3974487E-1,-5.896761E-1,6.1347294E-1,-2.1860203E-1,-7.212666E-3,4.3982926E-1,-1.2561208E-2,3.6724383E-1,9.065793E-2,-2.7876168E-1,9.149012E-2,-3.5205263E-1,3.015779E-1,1.1212253E-1,-2.3361586E-2,3.9054254E-1,-2.929988E-1,4.7048786E-1,3.6075585E-2,-4.2028615E-1,1.7840342E-1,-1.361839E-1,8.1389375E-2,-4.6276674E-1,2.7188063E-1,3.7993342E-1,7.1995005E-2],"categories":[],"categories_nodes":[],"categories_segments":[],"categories_sizes":[],"default_left":[0,0,0,0,0,0,0,0,0,0,0,0,0,0,0,0,0,0,0,0,0,0,0,0,0,0,0,0,0,0,0,0,0,0,0,0,0,0,0,0,0,0,0,0,0,0,0,0,0,0,0,0,0,0,0,0,0,0,0,0,0,0,0,0,0,0,0,0,0],"id":13,"left_children":[1,3,5,7,-1,9,11,13,15,17,19,21,23,25,-1,27,-1,29,31,33,35,37,39,41,43,-1,-1,-1,-1,45,47,49,51,53,-1,-1,-1,55,57,59,61,-1,63,65,67,-1,-1,-1,-1,-1,-1,-1,-1,-1,-1,-1,-1,-1,-1,-1,-1,-1,-1,-1,-1,-1,-1,-1,-1],"loss_changes":[2.5694456E1,4.113657E0,1.10358305E1,2.3276398E0,0E0,1.813208E1,1.6539206E1,3.9874187E0,6.5143037E0,1.1418915E1,8.650385E0,1.3546099E1,2.3085878E1,2.722208E0,0E0,1.9003153E-1,0E0,1.7335266E1,4.7860664E1,1.2523497E1,5.4716167E0,1.4327891E1,1.6701052E1,1.848107E1,1.0713889E1,0E0,0E0,0E0,0E0,2.9597603E1,3.1064428E1,2.1792152E1,3.776497E1,1.2040527E1,0E0,0E0,0E0,1.8978943E1,1.393984E1,7.027622E0,1.5710511E1,0E0,1.0553141E1,1.4513469E1,9.66069E0,0E0,0E0,0E0,0E0,0E0,0E0,0E0,0E0,0E0,0E0,0E0,0E0,0E0,0E0,0E0,0E0,0E0,0E0,0E0,0E0,0E0,0E0,0E0,0E0],"parents":[2147483647,0,0,1,1,2,2,3,3,5,5,6,6,7,7,8,8,9,9,10,10,11,11,12,12,13,13,15,15,17,17,18,18,19,19,20,20,21,21,22,22,23,23,24,24,29,29,30,30,31,31,32,32,33,33,37,37,38,38,39,39,40,40,42,42,43,43,44,44],"right_children":[2,4,6,8,-1,10,12,14,16,18,20,22,24,26,-1,28,-1,30,32,34,36,38,40,42,44,-1,-1,-1,-1,46,48,50,52,54,-1,-1,-1,56,58,60,62,-1,64,66,68,-1,-1,-1,-1,-1,-1,-1,-1,-1,-1,-1,-1,-1,-1,-1,-1,-1,-1,-1,-1,-1,-1,-1,-1],"split_conditions":[3.8E1,7.619E1,1.6214E2,2.99E1,-2.9088563E-1,1.4116E2,2.226E2,1.4E0,3.1E1,1E0,2.76E1,2.1972E2,1E0,6.799E1,-2.7687895E-1,1.5E1,-2.4554884E-1,7.271E1,8.922E1,2.73E1,4.51E1,8.2E1,1E0,2.2789E2,6.7E1,-1.9848022E-1,1.8596774E-1,2.7278343E-1,8.906905E-2,2.79E1,7.3E1,5.8E1,1.1198E2,7.9E1,4.0699795E-1,-3.5198486E-1,1.494399E-1,1.9574E2,3.26E1,3.74E1,2.2129E2,-4.010668E-1,7.8E1,2.4009E2,1E0,-2.1860203E-1,-7.212666E-3,4.3982926E-1,-1.2561208E-2,3.6724383E-1,9.065793E-2,-2.7876168E-1,9.149012E-2,-3.5205263E-1,3.015779E-1,1.1212253E-1,-2.3361586E-2,3.9054254E-1,-2.929988E-1,4.7048786E-1,3.6075585E-2,-4.2028615E-1,1.7840342E-1,-1.361839E-1,8.1389375E-2,-4.6276674E-1,2.7188063E-1,3.7993342E-1,7.1995005E-2],"split_indices":[1,7,7,8,0,7,7,1,8,2,8,7,3,7,0,1,0,7,7,8,8,1,2,7,1,0,0,0,0,8,7,1,7,1,0,0,0,7,8,8,7,0,1,7,9,0,0,0,0,0,0,0,0,0,0,0,0,0,0,0,0,0,0,0,0,0,0,0,0],"split_type":[0,0,0,0,0,0,0,0,0,0,0,0,0,0,0,0,0,0,0,0,0,0,0,0,0,0,0,0,0,0,0,0,0,0,0,0,0,0,0,0,0,0,0,0,0,0,0,0,0,0,0,0,0,0,0,0,0,0,0,0,0,0,0,0,0,0,0,0,0],"sum_hessian":[2.1270083E3,5.3032078E1,2.0739763E3,2.4774023E1,2.8258057E1,1.4699059E3,6.040705E2,1.5829091E1,8.944933E0,1.4300007E3,3.9905056E1,4.442189E2,1.5985156E2,4.9338155E0,1.0895275E1,4.917334E0,4.027599E0,1.1771222E3,2.5287863E2,1.4391485E1,2.5513573E1,4.0521045E2,3.9008465E1,1.1179164E2,4.805992E1,1.7810613E0,3.152754E0,2.69672E0,2.220614E0,2.4424202E2,9.328801E2,1.5393153E2,9.89471E1,1.09614935E1,3.4299917E0,2.3928455E1,1.5851177E0,3.8637512E2,1.883533E1,2.2200113E1,1.6808352E1,1.7511131E1,9.428051E1,8.20092E0,3.9859E1,1.0138989E2,1.4285213E2,1.2866737E1,9.2001337E2,3.1850355E1,1.2208118E2,5.537817E1,4.356893E1,8.3408165E0,2.6206772E0,1.5383284E2,2.3254227E2,1.6414326E1,2.4210036E0,1.7914186E1,4.285927E0,4.630248E0,1.2178104E1,6.651341E1,2.7767094E1,4.9907675E0,3.2101526E0,1.3633215E1,2.6225788E1],"tree_param":{"num_deleted":"0","num_feature":"10","num_nodes":"69","size_leaf_vector":"1"}},{"base_weights":[-2.4519606E-2,-4.5786956E-1,-2.6867911E-3,1.9287299E-1,-5.304344E-1,-5.0040746E-1,5.5669257E-3,-2.3988011E-1,7.396967E-1,-3.7375554E-1,-8.846202E-1,-1.8963003E-1,-3.0355534E-1,3.7497678E-1,-4.4231103E-3,6.3714884E-2,3.6892506E-1,-5.339336E-1,9.9597406E-1,-2.9280707E-1,7.016116E-2,-4.114248E-1,2.8971803E-1,7.0034873E-1,-3.6818784E-1,-3.8462797E-1,1.1954552E-3,-2.1808869E-1,-2.9434595E-1,1.3625854E0,-1.6323432E-1,-1.5542501E-1,1.7199771E-1,1.7339874E-2,-3.0025178E-1,-3.3638197E-1,9.541931E-1,-2.5853008E-2,1.472581E-1,-2.290624E-1,2.2175571E-1,9.1833875E-2,5.483378E-1,-2.9506293E-1,2.4280486E-1,5.2736235E-1,1.2012834E-1,-5.018642E-2,1.2092511E-2,-2.9020578E-1,5.708095E-2],"categories":[],"categories_nodes":[],"categories_segments":[],"categories_sizes":[],"default_left":[0,0,0,0,0,0,0,0,0,0,0,0,0,0,0,0,0,0,0,0,0,0,0,0,0,0,0,0,0,0,0,0,0,0,0,0,0,0,0,0,0,0,0,0,0,0,0,0,0,0,0],"id":14,"left_children":[1,3,5,7,9,11,13,-1,15,17,19,21,-1,23,25,-1,-1,27,29,-1,31,33,-1,35,-1,-1,37,39,-1,41,-1,-1,-1,43,-1,-1,45,47,49,-1,-1,-1,-1,-1,-1,-1,-1,-1,-1,-1,-1],"loss_changes":[1.9730015E1,4.8255444E0,8.163238E0,6.435408E0,4.6779785E0,4.960347E0,7.216576E0,0E0,1.6671662E0,1.4640691E1,2.4203472E0,5.8795033E0,0E0,2.7703068E1,1.3673679E1,0E0,0E0,8.010397E0,4.7398624E0,0E0,1.2700617E0,4.730438E0,0E0,2.1154924E1,0E0,0E0,7.4992523E0,1.9053879E1,0E0,2.3920546E0,0E0,0E0,0E0,1.01333065E1,0E0,0E0,1.6503284E1,1.4994003E1,1.4402828E1,0E0,0E0,0E0,0E0,0E0,0E0,0E0,0E0,0E0,0E0,0E0,0E0],"parents":[2147483647,0,0,1,1,2,2,3,3,4,4,5,5,6,6,8,8,9,9,10,10,11,11,13,13,14,14,17,17,18,18,20,20,21,21,23,23,26,26,27,27,29,29,33,33,36,36,37,37,38,38],"right_children":[2,4,6,8,10,12,14,-1,16,18,20,22,-1,24,26,-1,-1,28,30,-1,32,34,-1,36,-1,-1,38,40,-1,42,-1,-1,-1,44,-1,-1,46,48,50,-1,-1,-1,-1,-1,-1,-1,-1,-1,-1,-1,-1],"split_conditions":[4.5E1,5.837E1,5.926E1,5.793E1,3E1,2.8E1,6.136E1,-2.3988011E-1,2E0,2.96E1,4.58E1,2.79E1,-3.0355534E-1,2E0,6.181E1,6.3714884E-2,3.6892506E-1,8.37E1,1.0146E2,-2.9280707E-1,1E0,2.56E1,2.8971803E-1,2.71E1,-3.6818784E-1,-3.8462797E-1,2E0,8.221E1,-2.9434595E-1,9.621E1,-1.6323432E-1,-1.5542501E-1,1.7199771E-1,2.42E1,-3.0025178E-1,-3.3638197E-1,2.89E1,6.3E1,4.9E1,-2.290624E-1,2.2175571E-1,9.1833875E-2,5.483378E-1,-2.9506293E-1,2.4280486E-1,5.2736235E-1,1.2012834E-1,-5.018642E-2,1.2092511E-2,-2.9020578E-1,5.708095E-2],"split_indices":[1,7,7,7,8,8,7,0,9,8,8,8,0,9,7,0,0,7,7,0,5,8,0,8,0,0,9,7,0,7,0,0,0,8,0,0,8,1,1,0,0,0,0,0,0,0,0,0,0,0,0],"split_type":[0,0,0,0,0,0,0,0,0,0,0,0,0,0,0,0,0,0,0,0,0,0,0,0,0,0,0,0,0,0,0,0,0,0,0,0,0,0,0,0,0,0,0,0,0,0,0,0,0,0,0],"sum_hessian":[2.08448E3,9.902402E1,1.9854559E3,9.768125E0,8.925589E1,3.1415102E1,1.9540408E3,3.305837E0,6.4622874E0,6.3306606E1,2.5949286E1,2.0393698E1,1.1021404E1,5.049013E1,1.9035507E3,3.803251E0,2.6590364E0,5.7224846E1,6.08176E0,2.3661837E1,2.2874477E0,1.7649422E1,2.7442753E0,4.243565E1,8.054481E0,7.3395405E0,1.8962112E3,3.4410435E1,2.2814411E1,5.005482E0,1.0762779E0,1.0408964E0,1.2465513E0,1.0778948E1,6.8704743E0,4.77224E0,3.766341E1,1.6006241E3,2.9558694E2,2.2049223E1,1.2361213E1,2.037161E0,2.968321E0,4.6547666E0,6.1241813E0,1.4477609E1,2.3185802E1,5.0963483E2,1.0909894E3,1.0184117E1,2.8540283E2],"tree_param":{"num_deleted":"0","num_feature":"10","num_nodes":"51","size_leaf_vector":"1"}},{"base_weights":[-2.0023426E-2,-4.1035783E-1,-3.5172096E-3,-2.2118844E-1,-6.7354995E-1,5.1375907E-2,-7.767897E-2,-4.1654328E-1,2.5063246E-1,-2.889146E-1,-3.264882E-1,-2.678292E-1,8.616902E-2,-5.320094E-1,-3.1981457E-2,-5.165166E-1,1.707403E-1,4.679749E-1,-6.0584295E-1,7.219722E-1,-4.6135536E-1,5.4230446E-1,3.6333006E-2,-6.925163E-1,7.818963E-1,1.017486E0,-6.180427E-2,-2.8398907E-1,-2.93446E-1,5.0281666E-2,-7.669942E-1,1.1829029E0,-2.537911E-1,-9.526104E-1,-1.5883154E-1,1.358977E0,2.9730263E-1,-2.3021828E-2,3.713203E-1,-8.516906E-1,1.9072995E-1,1.0285597E0,-2.0049994E-1,-2.733414E-1,1.5692219E0,-2.1735951E-2,-7.286218E-1,-1.2590834E-1,1.6206479E-1,-2.7670553E-1,5.811907E-2,-2.3056157E-1,5.099389E-1,2.618424E-1,-3.74051E-1,1.6883413E-1,-1.7208403E-1,-2.1467549E-1,4.6107417E-1,-1.3843244E-1,1.8546653E-1,1.9117037E-2,-1.2895027E-1,3.1076872E-1,6.1425865E-3,-3.2461908E-1,-1.3276988E-1,3.6335546E-1,-2.9036212E-1,-2.5721714E-1,2.7365315E-1,5.4128873E-1,-2.1052061E-1,-1.6076988E-2,2.8992075E-1,-3.0021438E-1,1.5562023E-1],"categories":[],"categories_nodes":[],"categories_segments":[],"categories_sizes":[],"default_left":[0,0,0,0,0,0,0,0,0,0,0,0,0,0,0,0,0,0,0,0,0,0,0,0,0,0,0,0,0,0,0,0,0,0,0,0,0,0,0,0,0,0,0,0,0,0,0,0,0,0,0,0,0,0,0,0,0,0,0,0,0,0,0,0,0,0,0,0,0,0,0,0,0,0,0,0,0],"id":15,"left_children":[1,3,5,7,9,11,13,15,-1,-1,17,19,21,23,25,27,-1,-1,29,31,33,35,37,39,41,43,45,47,-1,-1,49,51,-1,53,55,57,59,61,63,65,67,-1,69,-1,71,73,75,-1,-1,-1,-1,-1,-1,-1,-1,-1,-1,-1,-1,-1,-1,-1,-1,-1,-1,-1,-1,-1,-1,-1,-1,-1,-1,-1,-1,-1,-1],"loss_changes":[1.321119E1,3.9929886E0,8.017783E0,1.0646542E1,3.1318865E0,1.2593212E1,1.7375185E1,4.508993E0,0E0,0E0,9.962837E0,2.1688402E1,2.3197212E1,1.6673292E1,2.3918564E1,3.9471874E0,0E0,0E0,2.0761242E0,1.4459534E1,1.3798243E1,1.970967E1,1.8336962E1,9.8205185E0,2.3559778E1,2.3901821E1,1.9811535E1,3.311986E0,0E0,0E0,2.1354904E0,1.6243834E1,0E0,2.0193882E1,1.8069014E1,9.559795E0,1.942573E1,2.76941E1,3.234304E1,5.024441E0,1.4540337E1,0E0,6.1617827E0,0E0,1.0228413E1,2.2118399E1,1.4784985E1,0E0,0E0,0E0,0E0,0E0,0E0,0E0,0E0,0E0,0E0,0E0,0E0,0E0,0E0,0E0,0E0,0E0,0E0,0E0,0E0,0E0,0E0,0E0,0E0,0E0,0E0,0E0,0E0,0E0,0E0],"parents":[2147483647,0,0,1,1,2,2,3,3,4,4,5,5,6,6,7,7,10,10,11,11,12,12,13,13,14,14,15,15,18,18,19,19,20,20,21,21,22,22,23,23,24,24,25,25,26,26,27,27,30,30,31,31,33,33,34,34,35,35,36,36,37,37,38,38,39,39,40,40,42,42,44,44,45,45,46,46],"right_children":[2,4,6,8,10,12,14,16,-1,-1,18,20,22,24,26,28,-1,-1,30,32,34,36,38,40,42,44,46,48,-1,-1,50,52,-1,54,56,58,60,62,64,66,68,-1,70,-1,72,74,76,-1,-1,-1,-1,-1,-1,-1,-1,-1,-1,-1,-1,-1,-1,-1,-1,-1,-1,-1,-1,-1,-1,-1,-1,-1,-1,-1,-1,-1,-1],"split_conditions":[4.5E1,8.37E1,1E0,8.316E1,2.96E1,7.007E1,5.4E1,1E0,2.5063246E-1,-2.889146E-1,2.97E1,5E1,7.664E1,4.04E1,5.5E1,3.9E1,1.707403E-1,4.679749E-1,3E1,3E1,1E0,2.32E1,3.65E1,1E0,6.42E1,1E0,2.2129E2,8.221E1,-2.93446E-1,5.0281666E-2,4.58E1,2.88E1,-2.537911E-1,2.43E1,6.009E1,2E1,2.74E1,1E0,3.87E1,1.0326E2,4.9E1,1.0285597E0,2.2129E2,-2.733414E-1,1E0,2.1688E2,2.5272E2,-1.2590834E-1,1.6206479E-1,-2.7670553E-1,5.811907E-2,-2.3056157E-1,5.099389E-1,2.618424E-1,-3.74051E-1,1.6883413E-1,-1.7208403E-1,-2.1467549E-1,4.6107417E-1,-1.3843244E-1,1.8546653E-1,1.9117037E-2,-1.2895027E-1,3.1076872E-1,6.1425865E-3,-3.2461908E-1,-1.3276988E-1,3.6335546E-1,-2.9036212E-1,-2.5721714E-1,2.7365315E-1,5.4128873E-1,-2.1052061E-1,-1.6076988E-2,2.8992075E-1,-3.0021438E-1,1.5562023E-1],"split_indices":[1,7,5,7,8,7,1,2,0,0,8,1,7,8,1,1,0,0,8,8,0,8,8,4,7,9,7,7,0,0,8,8,0,8,7,8,8,2,8,7,1,0,7,0,3,7,7,0,0,0,0,0,0,0,0,0,0,0,0,0,0,0,0,0,0,0,0,0,0,0,0,0,0,0,0,0,0],"split_type":[0,0,0,0,0,0,0,0,0,0,0,0,0,0,0,0,0,0,0,0,0,0,0,0,0,0,0,0,0,0,0,0,0,0,0,0,0,0,0,0,0,0,0,0,0,0,0,0,0,0,0,0,0,0,0,0,0,0,0,0,0,0,0,0,0,0,0,0,0,0,0,0,0,0,0,0,0],"sum_hessian":[2.0497139E3,8.21923E1,1.9675215E3,4.8891747E1,3.3300552E1,1.1308185E3,8.36703E2,4.1774128E1,7.1176205E0,1.718825E1,1.61123E1,1.1048546E2,1.020333E3,7.5493645E1,7.6120935E2,3.835946E1,3.4146678E0,1.487001E0,1.46253E1,1.762266E1,9.28628E1,9.952511E1,9.208079E2,6.769673E1,7.7969084E0,2.0118534E1,7.410908E2,2.6584139E1,1.1775319E1,2.514907E0,1.2110394E1,1.3808826E1,3.8138335E0,3.4572758E1,5.8290043E1,2.1918076E1,7.7607025E1,7.830026E2,1.378053E2,5.7389935E1,1.0306802E1,1.4366137E0,6.360295E0,4.3303056E0,1.5788229E1,7.0005774E2,4.1033085E1,2.3247265E1,3.3368745E0,1.045902E1,1.6513742E0,2.789754E0,1.1019073E1,4.5260572E0,3.00467E1,2.1145533E1,3.7144512E1,1.4927368E0,2.042534E1,2.2937761E1,5.466927E1,6.4608105E2,1.3692159E2,4.693943E1,9.086587E1,3.5663445E1,2.1726486E1,5.4559875E0,4.850814E0,4.1435213E0,2.2167735E0,1.4493457E1,1.294772E0,6.791114E2,2.0946327E1,3.3847477E1,7.1856093E0],"tree_param":{"num_deleted":"0","num_feature":"10","num_nodes":"77","size_leaf_vector":"1"}},{"base_weights":[-1.7713312E-2,-3.5022843E-1,-5.38024E-3,2.3049659E-1,-4.293765E-1,-1.3882135E-2,4.6926627E-1,-2.2010161E-1,6.6741896E-1,-2.7380458E-1,-8.330814E-1,-6.3768243E-3,-3.1860617E-1,7.118974E-1,-4.1209763E-1,3.119919E-1,2.916353E-1,-4.2982697E-1,6.725852E-1,-2.8378832E-1,1.4524537E-2,-1.3569476E-2,9.7113556E-1,-2.2858246E-1,8.8618606E-1,-2.7816677E-1,2.4503925E-1,2.5273404E-1,-1.784722E-1,-1.6236718E-1,-2.827239E-1,9.5879245E-1,-1.5778743E-1,2.1402078E-2,-1.1898608E-1,-2.3819928E-1,3.9651975E-1,1.7512364E0,4.0223354E-1,-1.7534955E-1,1.3622959E-1,8.956548E-2,3.7031946E-1,-1.6993526E-1,1.0983547E-2,-1.2400562E-1,-1.0660168E-2,8.404796E-1,3.3896804E-1,-2.7993202E-1,2.7145815E-1],"categories":[],"categories_nodes":[],"categories_segments":[],"categories_sizes":[],"default_left":[0,0,0,0,0,0,0,0,0,0,0,0,0,0,0,0,0,0,0,0,0,0,0,0,0,0,0,0,0,0,0,0,0,0,0,0,0,0,0,0,0,0,0,0,0,0,0,0,0,0,0],"id":16,"left_children":[1,3,5,7,9,11,13,-1,15,17,19,21,-1,23,25,27,-1,29,31,-1,-1,33,35,-1,37,-1,-1,-1,-1,39,-1,41,-1,43,45,-1,-1,47,49,-1,-1,-1,-1,-1,-1,-1,-1,-1,-1,-1,-1],"loss_changes":[8.264E0,3.4115534E0,7.8535023E0,4.40539E0,3.7773046E0,1.5028618E1,7.6168666E0,0E0,4.4614434E-1,7.306484E0,1.7622766E0,1.3362837E1,0E0,7.6674566E0,5.838081E0,2.746229E0,0E0,5.5239472E0,2.9452875E0,0E0,0E0,6.9548078E0,9.640748E0,0E0,9.679745E0,0E0,0E0,0E0,0E0,7.6608076E0,0E0,7.4118996E-1,0E0,1.2689411E1,1.1529222E1,0E0,0E0,2.4473705E0,1.2391256E1,0E0,0E0,0E0,0E0,0E0,0E0,0E0,0E0,0E0,0E0,0E0,0E0],"parents":[2147483647,0,0,1,1,2,2,3,3,4,4,5,5,6,6,8,8,9,9,10,10,11,11,13,13,14,14,15,15,17,17,18,18,21,21,22,22,24,24,29,29,31,31,33,33,34,34,37,37,38,38],"right_children":[2,4,6,8,10,12,14,-1,16,18,20,22,-1,24,26,28,-1,30,32,-1,-1,34,36,-1,38,-1,-1,-1,-1,40,-1,42,-1,44,46,-1,-1,48,50,-1,-1,-1,-1,-1,-1,-1,-1,-1,-1,-1,-1],"split_conditions":[4.5E1,5.837E1,4.39E1,3.01E1,3E1,4.26E1,1E0,-2.2010161E-1,2E0,2.96E1,4.58E1,4.22E1,-3.1860617E-1,5.7E1,2.2973E2,3.1E1,2.916353E-1,8.37E1,1.0146E2,-2.8378832E-1,1.4524537E-2,3.21E1,9.393E1,-2.2858246E-1,1E0,-2.7816677E-1,2.4503925E-1,2.5273404E-1,-1.784722E-1,8.221E1,-2.827239E-1,9.621E1,-1.5778743E-1,6.06E1,8.493E1,-2.3819928E-1,3.9651975E-1,1E0,6.3E1,-1.7534955E-1,1.3622959E-1,8.956548E-2,3.7031946E-1,-1.6993526E-1,1.0983547E-2,-1.2400562E-1,-1.0660168E-2,8.404796E-1,3.3896804E-1,-2.7993202E-1,2.7145815E-1],"split_indices":[1,7,8,8,8,8,5,0,9,8,8,8,0,1,7,8,0,7,7,0,0,8,7,0,0,0,0,0,0,7,0,7,0,7,7,0,0,2,1,0,0,0,0,0,0,0,0,0,0,0,0],"split_type":[0,0,0,0,0,0,0,0,0,0,0,0,0,0,0,0,0,0,0,0,0,0,0,0,0,0,0,0,0,0,0,0,0,0,0,0,0,0,0,0,0,0,0,0,0,0,0,0,0,0,0],"sum_hessian":[2.0146105E3,7.107024E1,1.9435403E3,8.295115E0,6.277512E1,1.9102937E3,3.324654E1,2.3749862E0,5.9201293E0,4.6524605E1,1.6250515E1,1.897711E3,1.2582685E1,2.6220549E1,7.02599E0,3.6667957E0,2.2533336E0,4.0408634E1,6.115968E0,1.434096E1,1.9095558E0,1.8848284E3,1.2882672E1,2.4162524E0,2.3804296E1,5.1237245E0,1.9022659E0,2.3584075E0,1.3083882E0,2.7418716E1,1.2989919E1,5.0985017E0,1.0174664E0,1.4159044E3,4.6892392E2,1.9252095E0,1.0957462E1,7.600328E0,1.6203968E1,1.630533E1,1.1113386E1,2.115019E0,2.9834826E0,3.4796223E1,1.3811083E3,1.0270238E2,3.6622153E2,1.5206962E0,6.079632E0,4.197067E0,1.2006902E1],"tree_param":{"num_deleted":"0","num_feature":"10","num_nodes":"51","size_leaf_vector":"1"}},{"base_weights":[-1.3569706E-2,-3.0603096E-1,-4.216674E-3,3.843318E-1,-3.7230602E-1,-1.0506146E-2,3.8714966E-1,-1.7202678E-1,2.3487593E-1,-2.8365687E-1,-2.0416716E-1,-4.8164534E-3,-3.0195895E-1,5.7470477E-1,-3.685043E-1,4.0268826E-1,-3.0517536E-1,-9.994623E-3,7.519382E-1,-2.1171218E-1,7.1605587E-1,-2.6082274E-1,2.2151928E-1,-1.7091534E-1,2.0707025E-1,2.0621683E-1,-5.496444E-1,-6.6100634E-3,-3.2022658E-1,-2.1732475E-1,1.0293285E0,1.3653247E0,3.1365475E-1,1.5072413E-1,-2.2320421E-1,-2.25729E-1,1.1448482E-2,-6.4642536E-3,4.34589E-2,3.583729E-1,1.3488474E-1,4.7207814E-1,1.4491676E-1,-2.5926647E-1,2.1481559E-1],"categories":[],"categories_nodes":[],"categories_segments":[],"categories_sizes":[],"default_left":[0,0,0,0,0,0,0,0,0,0,0,0,0,0,0,0,0,0,0,0,0,0,0,0,0,0,0,0,0,0,0,0,0,0,0,0,0,0,0,0,0,0,0,0,0],"id":17,"left_children":[1,3,5,7,9,11,13,-1,-1,-1,15,17,-1,19,21,23,25,27,29,-1,31,-1,-1,-1,-1,33,35,37,-1,-1,39,41,43,-1,-1,-1,-1,-1,-1,-1,-1,-1,-1,-1,-1],"loss_changes":[5.450204E0,2.968207E0,4.760145E0,2.7014494E0,5.2857313E0,1.077737E1,4.546742E0,0E0,0E0,0E0,2.895275E0,7.4246798E0,0E0,5.011076E0,4.352044E0,2.3183534E0,5.032048E0,6.724656E0,6.0190606E0,0E0,5.559103E0,0E0,0E0,0E0,0E0,4.1599636E0,3.234128E0,4.247654E0,0E0,0E0,5.409088E-1,7.9628944E-1,7.9399548E0,0E0,0E0,0E0,0E0,0E0,0E0,0E0,0E0,0E0,0E0,0E0,0E0],"parents":[2147483647,0,0,1,1,2,2,3,3,4,4,5,5,6,6,10,10,11,11,13,13,14,14,15,15,16,16,17,17,18,18,20,20,25,25,26,26,27,27,30,30,31,31,32,32],"right_children":[2,4,6,8,10,12,14,-1,-1,-1,16,18,-1,20,22,24,26,28,30,-1,32,-1,-1,-1,-1,34,36,38,-1,-1,40,42,44,-1,-1,-1,-1,-1,-1,-1,-1,-1,-1,-1,-1],"split_conditions":[4.5E1,1.4E0,4.39E1,1.32E0,2.4E1,4.26E1,1E0,-1.7202678E-1,2.3487593E-1,-2.8365687E-1,5.837E1,4.22E1,-3.0195895E-1,5.7E1,2.2973E2,1E0,2.64E1,4.18E1,9.393E1,-2.1171218E-1,1E0,-2.6082274E-1,2.2151928E-1,-1.7091534E-1,2.0707025E-1,8.37E1,2E0,1E0,-3.2022658E-1,-2.1732475E-1,1E0,6E1,6.3E1,1.5072413E-1,-2.2320421E-1,-2.25729E-1,1.1448482E-2,-6.4642536E-3,4.34589E-2,3.583729E-1,1.3488474E-1,4.7207814E-1,1.4491676E-1,-2.5926647E-1,2.1481559E-1],"split_indices":[1,1,8,1,8,8,5,0,0,0,7,8,0,1,7,6,8,8,7,0,0,0,0,0,0,7,9,4,0,0,9,1,1,0,0,0,0,0,0,0,0,0,0,0,0],"split_type":[0,0,0,0,0,0,0,0,0,0,0,0,0,0,0,0,0,0,0,0,0,0,0,0,0,0,0,0,0,0,0,0,0,0,0,0,0,0,0,0,0,0,0,0,0],"sum_hessian":[1.9919425E3,6.0746044E1,1.9311965E3,4.9004827E0,5.5845562E1,1.9016097E3,2.9586758E1,1.3112019E0,3.5892806E0,1.1617129E1,4.422843E1,1.8918079E3,9.80194E0,2.3895338E1,5.6914186E0,5.8849673E0,3.8343464E1,1.879931E3,1.1876823E1,1.978724E0,2.1916615E1,4.065995E0,1.6254234E0,1.119111E0,4.7658563E0,1.2452077E1,2.5891388E1,1.874936E3,4.9949493E0,1.6236632E0,1.02531595E1,7.470354E0,1.444626E1,9.852287E0,2.5997894E0,1.9042057E1,6.849331E0,1.7074176E3,1.6751848E2,7.153432E0,3.0997279E0,5.4097486E0,2.0606058E0,3.3863192E0,1.1059941E1],"tree_param":{"num_deleted":"0","num_feature":"10","num_nodes":"45","size_leaf_vector":"1"}},{"base_weights":[-1.0409238E-2,-1.6448602E-1,5.157397E-3,-3.25052E-1,-9.4575435E-2,4.9935558E-1,-1.8160343E-2,4.587547E-1,-3.408071E-1,-4.658434E-2,1.1038095E0,-5.963401E-1,3.5611477E-3,8.507245E-1,-3.9426315E-1,-5.458512E-1,3.4214836E-1,-7.5703263E-1,4.0533966E-1,-2.4488771E-1,1.334231E0,1.1856582E-1,-9.922573E-1,7.3611796E-2,-7.3548205E-2,4.6618056E-1,5.603431E-1,-4.1062087E-1,8.8643897E-1,-1.1619809E-1,-9.180417E-1,-2.8850343E-2,1.4468359E0,-4.1057885E-1,3.524466E-1,6.486661E-1,-4.092714E-1,1.4807156E0,-2.5489834E-1,-2.6046413E-1,7.9113764E-1,-3.5456145E-1,-8.462554E-2,-8.8117963E-1,9.652039E-2,8.2585377E-1,-9.756625E-2,2.9630134E-1,-1.503495E-1,4.4112515E-1,-3.1046757E-1,-2.9780936E-1,9.426353E-2,3.2703254E-1,-3.370725E-1,3.5927045E-1,-2.4074054E-1,-1.6953135E-1,5.762855E-1,3.7895623E-1,-3.3629954E-1,-2.5521693E-1,2.6420078E-1,-2.9413244E-1,2.1534753E-1,2.33891E-1,5.664839E-1,-3.2018924E-1,9.8723E-2,-2.729778E-1,3.7861177E-1,-4.311517E-2,-3.413741E-1,7.284903E-2,-1.5282627E-2,4.0602913E-1,-2.8053492E-1,-2.586226E-1,-1.9789344E-2],"categories":[],"categories_nodes":[],"categories_segments":[],"categories_sizes":[],"default_left":[0,0,0,0,0,0,0,0,0,0,0,0,0,0,0,0,0,0,0,0,0,0,0,0,0,0,0,0,0,0,0,0,0,0,0,0,0,0,0,0,0,0,0,0,0,0,0,0,0,0,0,0,0,0,0,0,0,0,0,0,0,0,0,0,0,0,0,0,0,0,0,0,0,0,0,0,0,0,0],"id":18,"left_children":[1,3,5,-1,7,9,11,13,15,17,19,21,23,25,27,29,31,33,35,-1,37,39,41,43,45,47,-1,-1,49,51,53,55,57,-1,59,61,63,65,-1,67,-1,-1,69,71,73,75,77,-1,-1,-1,-1,-1,-1,-1,-1,-1,-1,-1,-1,-1,-1,-1,-1,-1,-1,-1,-1,-1,-1,-1,-1,-1,-1,-1,-1,-1,-1,-1,-1],"loss_changes":[4.738491E0,1.1544931E1,2.0693943E1,0E0,2.3259094E1,2.6752226E1,2.154182E1,1.7937677E1,1.6699745E1,1.4264867E1,1.809581E1,1.7696548E1,8.939508E0,1.3360762E1,2.2751465E1,1.44576435E1,1.1452848E1,1.2187463E1,5.661444E0,0E0,1.2358871E1,2.2670769E1,6.7973137E0,1.9052366E1,1.7099058E1,1.4487083E1,0E0,0E0,1.0569886E1,1.6692217E1,2.1307507E1,2.1666704E1,7.781376E0,0E0,1.0709236E1,8.175466E0,5.129249E0,7.923752E0,0E0,1.030533E1,0E0,0E0,1.004279E1,3.7020903E0,1.8302567E1,2.0401072E1,1.8503386E1,0E0,0E0,0E0,0E0,0E0,0E0,0E0,0E0,0E0,0E0,0E0,0E0,0E0,0E0,0E0,0E0,0E0,0E0,0E0,0E0,0E0,0E0,0E0,0E0,0E0,0E0,0E0,0E0,0E0,0E0,0E0,0E0],"parents":[2147483647,0,0,1,1,2,2,4,4,5,5,6,6,7,7,8,8,9,9,10,10,11,11,12,12,13,13,14,14,15,15,16,16,17,17,18,18,20,20,21,21,22,22,23,23,24,24,25,25,28,28,29,29,30,30,31,31,32,32,34,34,35,35,36,36,37,37,39,39,42,42,43,43,44,44,45,45,46,46],"right_children":[2,4,6,-1,8,10,12,14,16,18,20,22,24,26,28,30,32,34,36,-1,38,40,42,44,46,48,-1,-1,50,52,54,56,58,-1,60,62,64,66,-1,68,-1,-1,70,72,74,76,78,-1,-1,-1,-1,-1,-1,-1,-1,-1,-1,-1,-1,-1,-1,-1,-1,-1,-1,-1,-1,-1,-1,-1,-1,-1,-1,-1,-1,-1,-1,-1,-1],"split_conditions":[2.34E1,6.655E1,2.43E1,-3.25052E-1,7.894E1,1E0,2.53E1,2.19E1,1.2872E2,2.4E1,5.8E1,7.646E1,1E0,1E0,1E0,1E0,2E0,1.2872E2,1E0,-2.4488771E-1,1E0,7.619E1,2E0,6.091E1,2.57E1,1E0,5.603431E-1,-4.1062087E-1,1E0,6.9E1,1.7E1,1.3142E2,2E0,-4.1057885E-1,1.3476E2,7.8E1,1E0,2.38E1,-2.5489834E-1,7.8E1,7.9113764E-1,-3.5456145E-1,7.7E1,1E0,3.01E1,9.317E1,2.64E1,2.9630134E-1,-1.503495E-1,4.4112515E-1,-3.1046757E-1,-2.9780936E-1,9.426353E-2,3.2703254E-1,-3.370725E-1,3.5927045E-1,-2.4074054E-1,-1.6953135E-1,5.762855E-1,3.7895623E-1,-3.3629954E-1,-2.5521693E-1,2.6420078E-1,-2.9413244E-1,2.1534753E-1,2.33891E-1,5.664839E-1,-3.2018924E-1,9.8723E-2,-2.729778E-1,3.7861177E-1,-4.311517E-2,-3.413741E-1,7.284903E-2,-1.5282627E-2,4.0602913E-1,-2.8053492E-1,-2.586226E-1,-1.9789344E-2],"split_indices":[8,7,8,0,7,6,8,8,7,8,1,7,6,3,2,6,9,7,5,0,3,7,5,7,8,5,0,0,5,1,8,7,5,0,7,1,4,8,0,1,0,0,1,9,8,7,8,0,0,0,0,0,0,0,0,0,0,0,0,0,0,0,0,0,0,0,0,0,0,0,0,0,0,0,0,0,0,0,0],"split_type":[0,0,0,0,0,0,0,0,0,0,0,0,0,0,0,0,0,0,0,0,0,0,0,0,0,0,0,0,0,0,0,0,0,0,0,0,0,0,0,0,0,0,0,0,0,0,0,0,0,0,0,0,0,0,0,0,0,0,0,0,0,0,0,0,0,0,0,0,0,0,0,0,0,0,0,0,0,0,0],"sum_hessian":[1.974288E3,1.8028462E2,1.7940033E3,1.1719934E1,1.6856468E2,7.991264E1,1.7140907E3,5.164509E1,1.1691959E2,4.2473606E1,3.7439037E1,6.11067E1,1.6529839E3,3.5387077E1,1.6258013E1,9.007661E1,2.6842993E1,1.6251019E1,2.622259E1,3.7390387E0,3.3699997E1,2.20292E1,3.9077503E1,8.661594E2,7.868245E2,2.6736704E1,8.650374E0,9.193804E0,7.0642085E0,4.2419804E1,4.76568E1,2.0823502E1,6.01949E0,1.03257475E1,5.9252715E0,2.034823E1,5.874359E0,3.18834E1,1.8165971E0,1.992689E1,2.10231E0,3.207462E1,7.002883E0,1.9417227E1,8.467422E2,1.9596872E1,7.6722766E2,1.735806E1,9.378644E0,5.5975513E0,1.4666573E0,1.3540044E1,2.8879759E1,4.0251837E0,4.3631615E1,7.842601E0,1.2980902E1,1.1113768E0,4.908113E0,3.7500513E0,2.1752203E0,2.3692684E0,1.7978962E1,3.985019E0,1.88934E0,1.279197E1,1.909143E1,8.070872E0,1.1856017E1,4.543017E0,2.459866E0,5.4169507E0,1.4000275E1,4.2470782E2,4.220344E2,1.52573E1,4.339572E0,2.9412085E1,7.3781555E2],"tree_param":{"num_deleted":"0","num_feature":"10","num_nodes":"79","size_leaf_vector":"1"}},{"base_weights":[-1.0686184E-2,-4.1661218E-2,6.391424E-2,-2.7100874E-2,-6.5875244E-1,6.2156916E-1,2.3989622E-2,-1.1932743E-2,-4.8047087E-1,-5.1491354E-2,-9.8476636E-1,1.9917772E0,2.6371505E-2,-8.8895404E-1,6.1626486E-2,-4.6972476E-2,2.6297775E-1,-3.8672835E-1,1.9784471E-2,-5.4676324E-1,3.2591033E-1,1.16223834E-1,-3.3510694E-1,-2.7817208E-1,2.6816313E0,3.084897E-1,-4.2090055E-1,-3.1045258E-1,2.0278871E-1,3.055043E-1,-3.5476524E-2,-2.3477285E-1,8.299265E-3,4.4094583E-1,-4.1610727E-1,6.212066E-1,-8.71023E-1,-3.2239795E-1,2.5190818E-1,1.0139375E0,2.4813892E-1,-5.2041674E-1,9.5034975E-1,1.20334536E-1,1.2213755E0,-9.3813866E-1,5.233146E-2,-2.941614E-2,-3.2205477E-1,5.9953388E-2,-2.3821605E-2,-3.7663123E-1,1.6721404E-1,3.097636E-1,-3.40968E-1,-4.3869936E-1,2.850648E-1,-3.217021E-1,3.425379E-1,3.7131545E-1,-2.5675213E-1,-1.3914022E-1,8.8373624E-2,5.9685695E-1,8.3959036E-2,-4.1082707E-1,7.74863E-3,1.8074304E-1,-4.902365E-3],"categories":[],"categories_nodes":[],"categories_segments":[],"categories_sizes":[],"default_left":[0,0,0,0,0,0,0,0,0,0,0,0,0,0,0,0,0,0,0,0,0,0,0,0,0,0,0,0,0,0,0,0,0,0,0,0,0,0,0,0,0,0,0,0,0,0,0,0,0,0,0,0,0,0,0,0,0,0,0,0,0,0,0,0,0,0,0,0,0],"id":19,"left_children":[1,3,5,7,9,11,13,15,17,19,21,23,25,27,29,31,33,-1,35,37,-1,-1,-1,-1,39,41,-1,-1,-1,43,45,47,49,51,-1,53,55,-1,-1,-1,-1,57,59,61,63,65,67,-1,-1,-1,-1,-1,-1,-1,-1,-1,-1,-1,-1,-1,-1,-1,-1,-1,-1,-1,-1,-1,-1],"loss_changes":[4.4789553E0,1.2286441E1,1.2647658E1,9.201533E0,6.190242E0,3.0903788E1,1.8327078E1,1.2501979E1,1.7548805E1,7.394428E0,4.1452255E0,2.5607021E1,1.1512659E1,5.5212727E0,1.2127703E1,1.1947786E1,4.369813E1,0E0,1.5406718E1,7.5428314E0,0E0,0E0,0E0,0E0,9.561188E0,1.3139543E1,0E0,0E0,0E0,2.4581793E1,2.9126041E1,2.9907066E1,1.4969402E1,2.7009462E1,0E0,1.3572071E1,1.3881123E1,0E0,0E0,0E0,0E0,1.1332717E1,8.195368E0,1.2594802E1,1.7099327E1,1.3578341E1,1.2676543E1,0E0,0E0,0E0,0E0,0E0,0E0,0E0,0E0,0E0,0E0,0E0,0E0,0E0,0E0,0E0,0E0,0E0,0E0,0E0,0E0,0E0,0E0],"parents":[2147483647,0,0,1,1,2,2,3,3,4,4,5,5,6,6,7,7,8,8,9,9,10,10,11,11,12,12,13,13,14,14,15,15,16,16,18,18,19,19,24,24,25,25,29,29,30,30,31,31,32,32,33,33,35,35,36,36,41,41,42,42,43,43,44,44,45,45,46,46],"right_children":[2,4,6,8,10,12,14,16,18,20,22,24,26,28,30,32,34,-1,36,38,-1,-1,-1,-1,40,42,-1,-1,-1,44,46,48,50,52,-1,54,56,-1,-1,-1,-1,58,60,62,64,66,68,-1,-1,-1,-1,-1,-1,-1,-1,-1,-1,-1,-1,-1,-1,-1,-1,-1,-1,-1,-1,-1,-1],"split_conditions":[1.6214E2,1.4116E2,1.7412E2,8.2E1,2.76E1,5.2E1,5.4E1,8E1,1E0,2.74E1,4.4E1,1E0,8E1,4.89E1,6.4E1,2.64E1,1.1076E2,-3.8672835E-1,1E0,7.9E1,3.2591033E-1,1.16223834E-1,-3.3510694E-1,-2.7817208E-1,1E0,7.2E1,-4.2090055E-1,-3.1045258E-1,2.0278871E-1,6.3E1,6.7E1,2.57E1,2.86E1,6.42E1,-4.1610727E-1,8.678E1,2E0,-3.2239795E-1,2.5190818E-1,1.0139375E0,2.4813892E-1,2E0,2E0,3.1E1,3.17E1,3.74E1,6.9E1,-2.941614E-2,-3.2205477E-1,5.9953388E-2,-2.3821605E-2,-3.7663123E-1,1.6721404E-1,3.097636E-1,-3.40968E-1,-4.3869936E-1,2.850648E-1,-3.217021E-1,3.425379E-1,3.7131545E-1,-2.5675213E-1,-1.3914022E-1,8.8373624E-2,5.9685695E-1,8.3959036E-2,-4.1082707E-1,7.74863E-3,1.8074304E-1,-4.902365E-3],"split_indices":[7,7,7,1,8,1,1,1,6,8,1,9,1,8,1,8,7,0,5,1,0,0,0,0,2,1,0,0,0,1,1,8,8,7,0,7,5,0,0,0,0,5,5,8,8,8,1,0,0,0,0,0,0,0,0,0,0,0,0,0,0,0,0,0,0,0,0,0,0],"split_type":[0,0,0,0,0,0,0,0,0,0,0,0,0,0,0,0,0,0,0,0,0,0,0,0,0,0,0,0,0,0,0,0,0,0,0,0,0,0,0,0,0,0,0,0,0,0,0,0,0,0,0,0,0,0,0,0,0,0,0,0,0,0,0,0,0,0,0,0,0],"sum_hessian":[1.9361593E3,1.3684169E3,5.677424E2,1.3378931E3,3.0523838E1,3.6957848E1,5.3078455E2,1.2955741E3,4.231894E1,1.1067158E1,1.945668E1,1.0481625E1,2.6476221E1,2.0120071E1,5.1066446E2,1.1498455E3,1.4572867E2,1.5571674E1,2.6747265E1,8.072814E0,2.994344E0,1.5408578E0,1.7915823E1,1.9378374E0,8.543787E0,2.2766861E1,3.7093613E0,1.8714184E1,1.4058883E0,1.4481358E2,3.6585086E2,2.6072287E2,8.891226E2,1.322022E2,1.3526478E1,1.6147827E1,1.0599439E1,6.009552E0,2.063262E0,5.609508E0,2.9342787E0,1.0018301E1,1.274856E1,1.2140038E2,2.34132E1,3.1575205E1,3.3427567E2,2.2514078E2,3.5582096E1,2.78847E2,6.1027563E2,7.8628206E0,1.2433937E2,1.34199705E1,2.7278557E0,8.150314E0,2.449124E0,7.7874207E0,2.23088E0,1.1270186E1,1.4783732E0,2.7510971E1,9.388941E1,1.2280688E1,1.1132511E1,2.1524431E1,1.0050774E1,3.6233273E1,2.980424E2],"tree_param":{"num_deleted":"0","num_feature":"10","num_nodes":"69","size_leaf_vector":"1"}},{"base_weights":[-1.1811553E-2,-5.8830607E-1,-8.294803E-3,-2.8484672E-1,3.4465298E-1,3.1396356E-1,-1.8745458E-2,-1.5432866E-1,2.4308346E-1,-5.097861E-1,4.7348166E-1,-3.3782503E-1,-1.46108745E-2,7.807249E-2,-2.7687246E-1,1.0518497E0,1.15797214E-1,6.125576E-1,-1.969543E-2,-2.0530961E-1,2.0063716E-1,1.305085E0,-3.15783E-1,-3.236993E-1,4.362777E-1,-9.44219E-2,1.2703012E0,-3.9515278E-1,-8.812562E-3,1.6467641E-1,4.2620507E-1,-2.4071506E-1,1.7867343E-1,-2.835218E-1,3.636385E-1,2.1084432E-1,4.701151E-1,-1.843901E-1,6.1198676E-1,2.0926388E-1,-4.6704644E-3],"categories":[],"categories_nodes":[],"categories_segments":[],"categories_sizes":[],"default_left":[0,0,0,0,0,0,0,0,0,0,0,0,0,0,0,0,0,0,0,0,0,0,0,0,0,0,0,0,0,0,0,0,0,0,0,0,0,0,0,0,0],"id":20,"left_children":[1,3,5,-1,7,9,11,-1,-1,13,15,-1,17,19,-1,21,23,25,27,-1,-1,29,-1,-1,31,33,35,37,39,-1,-1,-1,-1,-1,-1,-1,-1,-1,-1,-1,-1],"loss_changes":[3.856498E0,4.2137775E0,6.3847713E0,0E0,1.9979346E0,8.06652E0,8.387277E0,0E0,0E0,2.5352612E0,1.0306293E1,0E0,5.846773E0,2.7582836E0,0E0,1.1572966E1,1.282715E1,6.9768167E0,7.4166403E0,0E0,0E0,7.5239944E-1,0E0,0E0,5.639138E0,1.0078706E1,1.966877E-1,2.858145E1,8.437261E0,0E0,0E0,0E0,0E0,0E0,0E0,0E0,0E0,0E0,0E0,0E0,0E0],"parents":[2147483647,0,0,1,1,2,2,4,4,5,5,6,6,9,9,10,10,12,12,13,13,15,15,16,16,17,17,18,18,21,21,24,24,25,25,26,26,27,27,28,28],"right_children":[2,4,6,-1,8,10,12,-1,-1,14,16,-1,18,20,-1,22,24,26,28,-1,-1,30,-1,-1,32,34,36,38,40,-1,-1,-1,-1,-1,-1,-1,-1,-1,-1,-1,-1],"split_conditions":[5.752E1,1E0,6.136E1,-2.8484672E-1,7.6E1,2.71E1,6.181E1,-1.5432866E-1,2.4308346E-1,5.866E1,2.89E1,-3.3782503E-1,6.257E1,5.837E1,-2.7687246E-1,8E1,2.99E1,6.5E1,6.655E1,-2.0530961E-1,2.0063716E-1,1E0,-3.15783E-1,-3.236993E-1,1E0,1E0,2E0,4.13E1,6.768E1,1.6467641E-1,4.2620507E-1,-2.4071506E-1,1.7867343E-1,-2.835218E-1,3.636385E-1,2.1084432E-1,4.701151E-1,-1.843901E-1,6.1198676E-1,2.0926388E-1,-4.6704644E-3],"split_indices":[7,2,7,0,1,8,7,0,0,7,8,0,7,7,0,1,8,1,7,0,0,6,0,0,0,2,5,8,7,0,0,0,0,0,0,0,0,0,0,0,0],"split_type":[0,0,0,0,0,0,0,0,0,0,0,0,0,0,0,0,0,0,0,0,0,0,0,0,0,0,0,0,0,0,0,0,0,0,0,0,0,0,0,0,0],"sum_hessian":[1.9036088E3,1.0533804E1,1.893075E3,7.581145E0,2.9526596E0,5.855074E1,1.8345243E3,1.0009979E0,1.9516616E0,9.1426115E0,4.940813E1,5.814849E0,1.8287094E3,4.1080356E0,5.0345764E0,1.813825E1,3.1269878E1,1.37456045E1,1.8149637E3,1.7241498E0,2.3838859E0,1.6529106E1,1.6091436E0,6.1129937E0,2.5156885E1,7.0376225E0,6.7079816E0,5.013131E1,1.7648325E3,2.9540865E0,1.357502E1,2.4066603E0,2.2750225E1,4.430039E0,2.6075833E0,3.4598775E0,3.2481043E0,4.6672245E1,3.459061E0,1.5750353E1,1.7490822E3],"tree_param":{"num_deleted":"0","num_feature":"10","num_nodes":"41","size_leaf_vector":"1"}},{"base_weights":[-8.749707E-3,-7.510331E-2,2.2922475E-2,-2.3539614E-2,-8.4934324E-1,1.3720894E0,1.1342863E-2,8.5876755E-2,-3.7643656E-1,-3.5806638E-1,1.048775E0,-2.1412633E-1,5.729572E-1,-3.4703928E-1,2.1774968E-2,2.6265496E-2,1.2886624E0,-1.0457885E-1,-9.535915E-1,6.357346E-1,-2.1491438E-1,3.662886E-1,1.1369466E-2,-7.504677E-2,4.2429447E-1,1.7948442E0,-2.7661487E-1,-2.048595E-1,3.7557974E-1,1.1922321E0,-3.4403926E-1,-6.689674E-2,1.06791034E-1,-3.774315E-2,1.4102736E-1,4.9255427E-2,3.0671346E-1,-2.0198251E-1,6.234914E-1,-8.135449E-3,-3.3024567E-1,1.0329443E0,-2.0437188E-1,2.4675535E-2,-1.05838545E-1,2.39209E-1,1.6757973E-2],"categories":[],"categories_nodes":[],"categories_segments":[],"categories_sizes":[],"default_left":[0,0,0,0,0,0,0,0,0,0,0,0,0,0,0,0,0,0,0,0,0,0,0,0,0,0,0,0,0,0,0,0,0,0,0,0,0,0,0,0,0,0,0,0,0,0,0],"id":21,"left_children":[1,3,5,7,9,11,13,15,17,-1,19,-1,-1,-1,21,23,25,27,29,-1,-1,-1,31,33,35,37,-1,39,-1,41,-1,43,45,-1,-1,-1,-1,-1,-1,-1,-1,-1,-1,-1,-1,-1,-1],"loss_changes":[3.9738421E0,2.4369541E1,1.998415E1,2.2188356E1,2.6156092E1,1.3573429E1,1.5504959E1,3.1428875E1,2.1237371E1,0E0,1.3578707E1,0E0,0E0,0E0,1.5708726E1,1.6932669E1,2.4818985E1,1.2984606E1,1.9368938E1,0E0,0E0,0E0,9.343857E0,9.327691E0,1.3084137E1,1.3420746E1,0E0,1.3981808E1,0E0,1.953797E1,0E0,2.934266E1,1.978294E1,0E0,0E0,0E0,0E0,0E0,0E0,0E0,0E0,0E0,0E0,0E0,0E0,0E0,0E0],"parents":[2147483647,0,0,1,1,2,2,3,3,4,4,5,5,6,6,7,7,8,8,10,10,14,14,15,15,16,16,17,17,18,18,22,22,23,23,24,24,25,25,27,27,29,29,31,31,32,32],"right_children":[2,4,6,8,10,12,14,16,18,-1,20,-1,-1,-1,22,24,26,28,30,-1,-1,-1,32,34,36,38,-1,40,-1,42,-1,44,46,-1,-1,-1,-1,-1,-1,-1,-1,-1,-1,-1,-1,-1,-1],"split_conditions":[8.623E1,8.421E1,8.646E1,3.04E1,3.65E1,5.7E1,2.01E1,3.02E1,7.664E1,-3.5806638E-1,3.69E1,-2.1412633E-1,5.729572E-1,-3.4703928E-1,2.04E1,1E0,6E1,7.646E1,4.7E1,6.357346E-1,-2.1491438E-1,3.662886E-1,3.08E1,8.1E1,8E1,5E1,-2.7661487E-1,7.3E1,3.7557974E-1,7.853E1,-3.4403926E-1,2.86E1,9.004E1,-3.774315E-2,1.4102736E-1,4.9255427E-2,3.0671346E-1,-2.0198251E-1,6.234914E-1,-8.135449E-3,-3.3024567E-1,1.0329443E0,-2.0437188E-1,2.4675535E-2,-1.05838545E-1,2.39209E-1,1.6757973E-2],"split_indices":[7,7,7,8,8,1,8,8,7,0,8,0,0,0,8,2,1,7,1,0,0,0,8,1,1,1,0,7,0,7,0,8,7,0,0,0,0,0,0,0,0,0,0,0,0,0,0],"split_type":[0,0,0,0,0,0,0,0,0,0,0,0,0,0,0,0,0,0,0,0,0,0,0,0,0,0,0,0,0,0,0,0,0,0,0,0,0,0,0,0,0,0,0,0,0,0,0],"sum_hessian":[1.8890789E3,6.0991925E2,1.2791597E3,5.728016E2,3.711768E1,9.885501E0,1.2692742E3,4.3781335E2,1.349882E2,3.17341E1,5.3835797E0,1.9591765E0,7.926325E0,1.0262276E1,1.2590118E3,4.181131E2,1.9700266E1,9.2567345E1,4.2420864E1,3.22656E0,2.1570196E0,9.829835E0,1.249182E3,3.3392816E2,8.418492E1,1.6182997E1,3.5172691E0,8.6985855E1,5.581484E0,3.076892E0,3.934397E1,6.864469E2,5.627351E2,3.0618515E2,2.7743025E1,5.955755E1,2.4627369E1,1.5254604E0,1.4657536E1,7.344586E1,1.3539997E1,1.0170709E0,2.0598211E0,4.5157825E2,2.3486867E2,3.7645546E1,5.2508954E2],"tree_param":{"num_deleted":"0","num_feature":"10","num_nodes":"47","size_leaf_vector":"1"}},{"base_weights":[-8.499876E-3,-1.0701987E-1,1.0123062E-2,8.75474E-3,-6.551027E-1,1.1224802E0,-2.8640326E-4,-5.4198164E-1,1.048158E-1,-9.452198E-1,6.53757E-1,-2.7339312E-1,2.03431E0,-5.1534504E-1,8.064874E-3,1.6898093E-1,-7.0245963E-1,3.3572245E-1,-1.6818756E-1,-1.059752E0,3.1618E-1,-2.5043938E-1,3.5151416E-1,8.4199554E-1,-2.2754444E-1,-3.623796E-1,6.875541E-1,2.920717E-1,-7.79688E-3,-3.6151522E-1,-2.9205212E-1,4.3086126E-1,-3.6018264E-1,-4.2935976E-1,3.417925E-1,1.09427325E-1,-3.5138E-1,-1.883766E-1,2.7922797E-1,-2.3594727E-1,3.8607657E-1,1.4386852E-1,1.4220077E0,-8.8695645E-1,9.341537E-3,2.313903E-2,-2.7215254E-1,6.1684847E-2,3.3043537E-1,-2.3229559E-1,1.3359842E-1,1.8037847E-1,-3.406625E-1,-1.7410581E-1,1.8039624E-1,-7.785827E-2,1.7621395E-1,5.3203815E-1,-1.803667E-1,-3.5492113E-1,3.2036963E-1,2.366574E-2,-2.1250267E-2],"categories":[],